{"learner":{"attributes":{"best_iteration":"2","best_score":"0.8048991942196917","scikit_learn":"{\"_estimator_type\": \"classifier\"}"},"feature_names":[],"feature_types":[],"gradient_booster":{"model":{"cats":{"enc":[],"feature_segments":[],"sorted_idx":[]},"gbtree_model_param":{"num_parallel_tree":"1","num_trees":"203"},"iteration_indptr":[0,1,2,3,4,5,6,7,8,9,10,11,12,13,14,15,16,17,18,19,20,21,22,23,24,25,26,27,28,29,30,31,32,33,34,35,36,37,38,39,40,41,42,43,44,45,46,47,48,49,50,51,52,53,54,55,56,57,58,59,60,61,62,63,64,65,66,67,68,69,70,71,72,73,74,75,76,77,78,79,80,81,82,83,84,85,86,87,88,89,90,91,92,93,94,95,96,97,98,99,100,101,102,103,104,105,106,107,108,109,110,111,112,113,114,115,116,117,118,119,120,121,122,123,124,125,126,127,128,129,130,131,132,133,134,135,136,137,138,139,140,141,142,143,144,145,146,147,148,149,150,151,152,153,154,155,156,157,158,159,160,161,162,163,164,165,166,167,168,169,170,171,172,173,174,175,176,177,178,179,180,181,182,183,184,185,186,187,188,189,190,191,192,193,194,195,196,197,198,199,200,201,202,203],"tree_info":[0,0,0,0,0,0,0,0,0,0,0,0,0,0,0,0,0,0,0,0,0,0,0,0,0,0,0,0,0,0,0,0,0,0,0,0,0,0,0,0,0,0,0,0,0,0,0,0,0,0,0,0,0,0,0,0,0,0,0,0,0,0,0,0,0,0,0,0,0,0,0,0,0,0,0,0,0,0,0,0,0,0,0,0,0,0,0,0,0,0,0,0,0,0,0,0,0,0,0,0,0,0,0,0,0,0,0,0,0,0,0,0,0,0,0,0,0,0,0,0,0,0,0,0,0,0,0,0,0,0,0,0,0,0,0,0,0,0,0,0,0,0,0,0,0,0,0,0,0,0,0,0,0,0,0,0,0,0,0,0,0,0,0,0,0,0,0,0,0,0,0,0,0,0,0,0,0,0,0,0,0,0,0,0,0,0,0,0,0,0,0,0,0,0,0,0,0,0,0,0,0,0,0],"trees":[{"base_weights":[-1.5948117E-2,4.1439995E-1,-7.421027E-1,3.038427E-1,1.6799055E0,-4.286307E-1,-1.3066158E0,4.084509E-1,-1.5308417E0,1.1834803E0,1.8605523E0,-1.9377512E0,-2.968254E-1,-1.673997E0,-2.422841E-1,6.5341177E-3,-5.909667E-4,-1.7656745E-2,-5.8318474E-3,1.962451E-2,8.140727E-3,1.8712634E-2,-1.1111111E-2,-4.825429E-3,-1.9911895E-2,3.7040515E-3,-6.261948E-3,-1.0776904E-2,-1.800987E-2,5.290264E-3,-1.4467497E-2],"categories":[],"categories_nodes":[],"categories_segments":[],"categories_sizes":[],"default_left":[0,0,0,0,0,0,0,0,0,0,0,0,0,0,0,0,0,0,0,0,0,0,0,0,0,0,0,0,0,0,0],"id":0,"left_children":[1,3,5,7,9,11,13,15,17,19,21,23,25,27,29,-1,-1,-1,-1,-1,-1,-1,-1,-1,-1,-1,-1,-1,-1,-1,-1],"loss_changes":[3.8331719E3,1.077057E3,8.0714844E2,1.3602557E3,5.3269775E1,5.8346906E2,6.366201E2,7.6772815E2,8.405768E1,4.6683914E1,1.645935E1,1.73656E1,5.9394006E2,8.975757E1,3.9022357E2,0E0,0E0,0E0,0E0,0E0,0E0,0E0,0E0,0E0,0E0,0E0,0E0,0E0,0E0,0E0,0E0],"parents":[2147483647,0,0,1,1,2,2,3,3,4,4,5,5,6,6,7,7,8,8,9,9,10,10,11,11,12,12,13,13,14,14],"right_children":[2,4,6,8,10,12,14,16,18,20,22,24,26,28,30,-1,-1,-1,-1,-1,-1,-1,-1,-1,-1,-1,-1,-1,-1,-1,-1],"split_conditions":[1.61394E1,3.6226146E0,3.285805E-1,2.6693356E0,3.744476E0,4.298308E0,5.7975143E-1,1.7922914E-2,3.4847643E0,-4.7577806E0,1.109478E1,1.217743E1,5.4675517E0,3.3589974E-1,5E0,6.5341177E-3,-5.909667E-4,-1.7656745E-2,-5.8318474E-3,1.962451E-2,8.140727E-3,1.8712634E-2,-1.1111111E-2,-4.825429E-3,-1.9911895E-2,3.7040515E-3,-6.261948E-3,-1.0776904E-2,-1.800987E-2,5.290264E-3,-1.4467497E-2],"split_indices":[26,46,11,47,11,35,11,34,11,14,30,30,31,46,49,0,0,0,0,0,0,0,0,0,0,0,0,0,0,0,0],"split_type":[0,0,0,0,0,0,0,0,0,0,0,0,0,0,0,0,0,0,0,0,0,0,0,0,0,0,0,0,0,0,0],"sum_hessian":[1.2264196E4,7.700816E3,4.5633804E3,7.0832485E3,6.1756744E2,2.9352224E3,1.6281581E3,6.7019033E3,3.813451E2,1.6678528E2,4.5078217E2,2.3466751E2,2.700555E3,1.2099427E3,4.182154E2,4.3975234E3,2.30438E3,3.049213E2,7.6423805E1,5.226386E1,1.1452142E2,4.4953217E2,1.25E0,8.667507E0,2.26E2,8.9247363E2,1.8080813E3,2.1409636E2,9.958464E2,2.5529285E2,1.6292255E2],"tree_param":{"num_deleted":"0","num_feature":"52","num_nodes":"31","size_leaf_vector":"1"}},{"base_weights":[-1.9289707E-4,4.272805E-1,-7.431623E-1,6.870309E-1,-9.4186924E-2,-4.1774267E-1,-1.3280121E0,-3.714565E-1,9.321559E-1,-7.900762E-1,6.7343634E-1,-1.8909442E0,-2.9350227E-1,-1.6384405E0,-4.027222E-1,1.5114501E-2,-1.3879139E-2,-1.9061549E-2,9.884154E-3,1.3855301E-2,-9.191932E-3,7.943367E-3,-1.6515194E-2,-1.9743111E-2,5.782897E-5,3.6605748E-3,-6.119682E-3,-1.0455749E-2,-1.7657567E-2,3.3555585E-3,-1.39258895E-2],"categories":[],"categories_nodes":[],"categories_segments":[],"categories_sizes":[],"default_left":[0,0,0,0,0,0,0,0,0,0,0,0,0,0,0,0,0,0,0,0,0,0,0,0,0,0,0,0,0,0,0],"id":1,"left_children":[1,3,5,7,9,11,13,15,17,19,21,23,25,27,29,-1,-1,-1,-1,-1,-1,-1,-1,-1,-1,-1,-1,-1,-1,-1,-1],"loss_changes":[3.9295164E3,1.0638728E3,8.5945996E2,1.3605947E3,1.395931E3,5.3110706E2,4.6322266E2,1.890163E3,6.816621E2,3.8628308E2,3.506007E2,3.57052E1,5.63157E2,8.940698E1,2.9792413E2,0E0,0E0,0E0,0E0,0E0,0E0,0E0,0E0,0E0,0E0,0E0,0E0,0E0,0E0,0E0,0E0],"parents":[2147483647,0,0,1,1,2,2,3,3,4,4,5,5,6,6,7,7,8,8,9,9,10,10,11,11,12,12,13,13,14,14],"right_children":[2,4,6,8,10,12,14,16,18,20,22,24,26,28,30,-1,-1,-1,-1,-1,-1,-1,-1,-1,-1,-1,-1,-1,-1,-1,-1],"split_conditions":[1.621335E1,1.87364E-6,3.284903E-1,6E0,6.2712398E0,4.296468E0,5.62572E-1,5E0,-1.8024719E-1,9.3513733E-1,3.284903E-1,3.1905213E-1,5.468128E0,3.348015E-1,5E0,1.5114501E-2,-1.3879139E-2,-1.9061549E-2,9.884154E-3,1.3855301E-2,-9.191932E-3,7.943367E-3,-1.6515194E-2,-1.9743111E-2,5.782897E-5,3.6605748E-3,-6.119682E-3,-1.0455749E-2,-1.7657567E-2,3.3555585E-3,-1.39258895E-2],"split_indices":[29,34,48,49,41,34,46,49,38,37,48,43,32,43,49,0,0,0,0,0,0,0,0,0,0,0,0,0,0,0,0],"split_type":[0,0,0,0,0,0,0,0,0,0,0,0,0,0,0,0,0,0,0,0,0,0,0,0,0,0,0,0,0,0,0],"sum_hessian":[1.2370547E4,7.8528E3,4.5177466E3,5.2415776E3,2.6112224E3,2.9037622E3,1.6139844E3,9.855043E2,4.256073E3,1.3695903E3,1.2416321E3,2.2473297E2,2.6790293E3,1.2079535E3,4.060308E2,3.453268E2,6.401774E2,8.208288E1,4.17399E3,7.618315E1,1.2934072E3,1.1808832E3,6.074893E1,2.1523198E2,9.500994E0,8.723001E2,1.8067291E3,2.1517479E2,9.9277875E2,2.3294963E2,1.7308116E2],"tree_param":{"num_deleted":"0","num_feature":"52","num_nodes":"31","size_leaf_vector":"1"}},{"base_weights":[-4.9273525E-3,4.159385E-1,-7.586797E-1,6.864246E-1,-1.0264793E-1,-4.315626E-1,-1.3239807E0,-3.265147E-1,9.2217934E-1,-7.8242826E-1,6.598748E-1,-2.853819E-1,-1.975028E-2,-1.6608037E0,-4.94186E-1,1.4723979E-2,-1.2847692E-2,-1.9654458E-2,9.776623E-3,1.3579656E-2,-9.167536E-3,7.838555E-3,-1.5715627E-2,-4.3823454E-3,1.3462175E-2,-1.2319793E-2,-1.7981302E-2,1.2318662E-3,-1.3497982E-2],"categories":[],"categories_nodes":[],"categories_segments":[],"categories_sizes":[],"default_left":[0,0,0,0,0,0,0,0,0,0,0,0,0,0,0,0,0,0,0,0,0,0,0,0,0,0,0,0,0],"id":2,"left_children":[1,3,5,7,9,11,13,15,17,19,21,23,-1,25,27,-1,-1,-1,-1,-1,-1,-1,-1,-1,-1,-1,-1,-1,-1],"loss_changes":[3.9058618E3,1.1083336E3,8.1521094E2,1.2403411E3,1.4048351E3,6.302774E2,4.5100244E2,1.693167E3,6.768335E2,4.1318213E2,3.5464258E2,6.3785394E2,0E0,6.54729E1,2.4746185E2,0E0,0E0,0E0,0E0,0E0,0E0,0E0,0E0,0E0,0E0,0E0,0E0,0E0,0E0],"parents":[2147483647,0,0,1,1,2,2,3,3,4,4,5,5,6,6,7,7,8,8,9,9,10,10,11,11,13,13,14,14],"right_children":[2,4,6,8,10,12,14,16,18,20,22,24,-1,26,28,-1,-1,-1,-1,-1,-1,-1,-1,-1,-1,-1,-1,-1,-1],"split_conditions":[1.628081E1,1.87364E-6,3.2718536E-1,6E0,6.2786455E0,6.009425E1,4.550747E-1,5E0,-1.8024719E-1,9.332347E-1,3.2718536E-1,1.006164E1,-1.975028E-2,3.3827284E-1,5E0,1.4723979E-2,-1.2847692E-2,-1.9654458E-2,9.776623E-3,1.3579656E-2,-9.167536E-3,7.838555E-3,-1.5715627E-2,-4.3823454E-3,1.3462175E-2,-1.2319793E-2,-1.7981302E-2,1.2318662E-3,-1.3497982E-2],"split_indices":[25,34,48,49,10,4,48,49,41,10,48,6,0,43,49,0,0,0,0,0,0,0,0,0,0,0,0,0,0],"split_type":[0,0,0,0,0,0,0,0,0,0,0,0,0,0,0,0,0,0,0,0,0,0,0,0,0,0,0,0,0],"sum_hessian":[1.2310455E4,7.899905E3,4.41055E3,5.1916846E3,2.7082202E3,2.7949736E3,1.6155762E3,9.801229E2,4.211562E3,1.4317792E3,1.276441E3,2.5542473E3,2.4072632E2,1.1484187E3,4.671575E2,3.4045563E2,6.396673E2,7.87467E1,4.132815E3,8.4010635E1,1.3477686E3,1.2098684E3,6.6572685E1,2.3361243E3,2.18123E2,2.8098114E2,8.6743756E2,2.7185486E2,1.9530266E2],"tree_param":{"num_deleted":"0","num_feature":"52","num_nodes":"29","size_leaf_vector":"1"}},{"base_weights":[-5.37767E-4,4.3003827E-1,-7.26981E-1,6.85568E-1,-7.423482E-2,-4.11883E-1,-1.3024216E0,-1.9579036E-2,7.431484E-1,-7.950437E-1,7.351972E-1,-2.6001486E-1,-1.9333866E0,-1.4997147E0,-1.372563E-1,-1.977244E-3,8.914427E-3,1.3833932E-2,-9.256921E-3,8.446507E-3,-1.5952926E-2,-4.064908E-3,1.4477211E-2,-1.32054305E-2,-1.9564005E-2,6.921243E-3,-1.53764E-2,-1.9374577E-2,2.6418273E-3],"categories":[],"categories_nodes":[],"categories_segments":[],"categories_sizes":[],"default_left":[0,0,0,0,0,0,0,0,0,0,0,0,0,0,0,0,0,0,0,0,0,0,0,0,0,0,0,0,0],"id":3,"left_children":[1,3,5,7,9,11,13,-1,15,17,19,21,23,25,27,-1,-1,-1,-1,-1,-1,-1,-1,-1,-1,-1,-1,-1,-1],"loss_changes":[3.8627317E3,9.991564E2,8.3275806E2,7.847527E2,1.522517E3,6.860178E2,3.7349243E2,0E0,7.029851E2,3.9412085E2,3.1490405E2,6.7662036E2,1.2173462E0,1.1662036E2,1.7142563E2,0E0,0E0,0E0,0E0,0E0,0E0,0E0,0E0,0E0,0E0,0E0,0E0,0E0,0E0],"parents":[2147483647,0,0,1,1,2,2,3,3,4,4,5,5,6,6,8,8,9,9,10,10,11,11,12,12,13,13,14,14],"right_children":[2,4,6,8,10,12,14,-1,16,18,20,22,24,26,28,-1,-1,-1,-1,-1,-1,-1,-1,-1,-1,-1,-1,-1,-1],"split_conditions":[1.61394E1,1.87364E-6,3.285093E-1,-1.8754676E-1,6.278537E0,6.009425E1,9.285641E-1,-1.9579036E-2,-7.91274E0,9.3513733E-1,3.2855672E-1,1.025835E1,6.033366E1,-1.176962E2,4.1436753E0,-1.977244E-3,8.914427E-3,1.3833932E-2,-9.256921E-3,8.446507E-3,-1.5952926E-2,-4.064908E-3,1.4477211E-2,-1.32054305E-2,-1.9564005E-2,6.921243E-3,-1.53764E-2,-1.9374577E-2,2.6418273E-3],"split_indices":[26,12,47,37,38,4,47,0,27,37,45,6,4,20,42,0,0,0,0,0,0,0,0,0,0,0,0,0,0],"split_type":[0,0,0,0,0,0,0,0,0,0,0,0,0,0,0,0,0,0,0,0,0,0,0,0,0,0,0,0,0],"sum_hessian":[1.234732E4,7.752614E3,4.5947065E3,5.1450894E3,2.6075242E3,2.970077E3,1.6246296E3,1.0897834E2,5.0361113E3,1.3792782E3,1.228246E3,2.7015898E3,2.68487E2,1.3891268E3,2.3550285E2,6.856408E2,4.35047E3,7.7497284E1,1.301781E3,1.173757E3,5.4489E1,2.488876E3,2.1271393E2,1.18305025E1,2.566565E2,2.3333822E1,1.365793E3,4.2243053E1,1.932598E2],"tree_param":{"num_deleted":"0","num_feature":"52","num_nodes":"29","size_leaf_vector":"1"}},{"base_weights":[2.3063563E-2,4.310305E-1,-6.745541E-1,3.2286125E-1,1.6469086E0,-3.5525146E-1,-1.2665277E0,4.2176196E-1,-1.4862559E0,5.486456E-1,1.7421062E0,-1.9847852E-1,-1.9155889E0,-1.5637118E0,-3.715231E-1,6.532078E-3,-2.831624E-4,-1.6019491E-2,8.086349E-3,1.5963664E-2,-1.9040588E-2,-1.4900005E-2,1.7597353E-2,-3.6210658E-3,1.39624225E-2,-1.3202785E-2,-1.9380733E-2,-1.00336E-2,-1.7535247E-2,-1.9279093E-2,1.286651E-3],"categories":[],"categories_nodes":[],"categories_segments":[],"categories_sizes":[],"default_left":[0,0,0,0,0,0,0,0,0,0,0,0,0,0,0,0,0,0,0,0,0,0,0,0,0,0,0,0,0,0,0],"id":4,"left_children":[1,3,5,7,9,11,13,15,17,19,21,23,25,27,29,-1,-1,-1,-1,-1,-1,-1,-1,-1,-1,-1,-1,-1,-1,-1,-1],"loss_changes":[3.551484E3,1.0350511E3,8.699248E2,1.2945789E3,6.627344E1,7.3167737E2,4.2846118E2,7.1438855E2,1.0088068E2,1.3859665E2,3.6312256E1,7.104044E2,1.0969238E0,1.2700757E2,3.1429517E2,0E0,0E0,0E0,0E0,0E0,0E0,0E0,0E0,0E0,0E0,0E0,0E0,0E0,0E0,0E0,0E0],"parents":[2147483647,0,0,1,1,2,2,3,3,4,4,5,5,6,6,7,7,8,8,9,9,10,10,11,11,12,12,13,13,14,14],"right_children":[2,4,6,8,10,12,14,16,18,20,22,24,26,28,30,-1,-1,-1,-1,-1,-1,-1,-1,-1,-1,-1,-1,-1,-1,-1,-1],"split_conditions":[1.621568E1,3.6223705E0,3.296641E-1,2.6680286E0,1.664637E0,6.009425E1,5.797225E-1,1.7242126E-2,3.622199E0,-2.640075E-1,-7.7315E-1,1.006164E1,6.033366E1,3.395031E-1,1E0,6.532078E-3,-2.831624E-4,-1.6019491E-2,8.086349E-3,1.5963664E-2,-1.9040588E-2,-1.4900005E-2,1.7597353E-2,-3.6210658E-3,1.39624225E-2,-1.3202785E-2,-1.9380733E-2,-1.00336E-2,-1.7535247E-2,-1.9279093E-2,1.286651E-3],"split_indices":[25,11,48,44,3,4,46,31,48,0,25,6,4,11,51,0,0,0,0,0,0,0,0,0,0,0,0,0,0,0,0],"split_type":[0,0,0,0,0,0,0,0,0,0,0,0,0,0,0,0,0,0,0,0,0,0,0,0,0,0,0,0,0,0,0],"sum_hessian":[1.2476621E4,7.872919E3,4.603702E3,7.2308955E3,6.4202313E2,2.9916475E3,1.6120548E3,6.8568145E3,3.74081E2,5.1751083E1,5.9027203E2,2.719533E3,2.7211447E2,1.2096472E3,4.024076E2,4.527939E3,2.3288755E3,3.5641486E2,1.7666136E1,3.6505978E1,1.5245103E1,2.7490323E0,5.87523E2,2.4671602E3,2.5237276E2,1.2077028E1,2.6003745E2,3.0766556E2,9.019816E2,9.717705E1,3.0523056E2],"tree_param":{"num_deleted":"0","num_feature":"52","num_nodes":"31","size_leaf_vector":"1"}},{"base_weights":[-3.3788972E-3,4.1763642E-1,-7.0227236E-1,6.6069424E-1,-8.530762E-2,-3.9233032E-1,-1.239583E0,-1.9484315E-2,7.1708006E-1,-7.4994123E-1,6.940095E-1,-2.546021E-1,-1.8949353E0,-1.4675561E0,5.614457E-2,-2.0943913E-3,8.5570235E-3,1.4296434E-2,-8.86991E-3,4.0102056E-3,1.5878139E-2,-1.5261699E-2,-8.888134E-4,-1.19552715E-2,-1.9196065E-2,-1.6037405E-2,-8.881196E-3,-1.9093035E-2,4.249062E-3],"categories":[],"categories_nodes":[],"categories_segments":[],"categories_sizes":[],"default_left":[0,0,0,0,0,0,0,0,0,0,0,0,0,0,0,0,0,0,0,0,0,0,0,0,0,0,0,0,0],"id":5,"left_children":[1,3,5,7,9,11,13,-1,15,17,19,21,23,25,27,-1,-1,-1,-1,-1,-1,-1,-1,-1,-1,-1,-1,-1,-1],"loss_changes":[3.634603E3,9.4239307E2,7.728511E2,7.6599097E2,1.3018762E3,6.0927783E2,5.0174268E2,0E0,6.5365674E2,4.06466E2,3.0234625E2,5.6885675E2,1.9711914E0,1.1254004E2,1.856729E2,0E0,0E0,0E0,0E0,0E0,0E0,0E0,0E0,0E0,0E0,0E0,0E0,0E0,0E0],"parents":[2147483647,0,0,1,1,2,2,3,3,4,4,5,5,6,6,8,8,9,9,10,10,11,11,12,12,13,13,14,14],"right_children":[2,4,6,8,10,12,14,-1,16,18,20,22,24,26,28,-1,-1,-1,-1,-1,-1,-1,-1,-1,-1,-1,-1,-1,-1],"split_conditions":[1.598165E1,1.87364E-6,3.2596058E-1,-1.8754676E-1,6.2712703E0,6.009425E1,8.7253255E-1,-1.9484315E-2,-9.25713E0,9.332347E-1,5.19717E1,2.0097877E-1,6.033366E1,4.2856622E-1,4.1436753E0,-2.0943913E-3,8.5570235E-3,1.4296434E-2,-8.86991E-3,4.0102056E-3,1.5878139E-2,-1.5261699E-2,-8.888134E-4,-1.19552715E-2,-1.9196065E-2,-1.6037405E-2,-8.881196E-3,-1.9093035E-2,4.249062E-3],"split_indices":[30,33,47,39,39,4,11,0,8,38,24,47,4,47,42,0,0,0,0,0,0,0,0,0,0,0,0,0,0],"split_type":[0,0,0,0,0,0,0,0,0,0,0,0,0,0,0,0,0,0,0,0,0,0,0,0,0,0,0,0,0],"sum_hessian":[1.2350312E4,7.7076216E3,4.6426895E3,5.196159E3,2.5114622E3,2.9453977E3,1.6972917E3,1.09208916E2,5.0869507E3,1.3554858E3,1.1559763E3,2.6991628E3,2.4623486E2,1.4432335E3,2.5405829E2,6.619724E2,4.424978E3,7.963121E1,1.2758546E3,8.716863E2,2.8428995E2,3.1026953E2,2.3888933E3,1.0075064E1,2.361598E2,1.1671516E3,2.7608197E2,3.947649E1,2.145818E2],"tree_param":{"num_deleted":"0","num_feature":"52","num_nodes":"29","size_leaf_vector":"1"}},{"base_weights":[-3.422996E-3,4.1325575E-1,-7.164062E-1,3.1461948E-1,1.6955943E0,-4.177552E-1,-1.1987289E0,4.0689886E-1,-1.0458485E0,-1.5035874E-2,1.7143816E0,-2.738474E-1,-1.8776973E0,-1.4746712E0,-3.0893484E-1,4.6811076E-3,-1.1623229E-2,-1.4455865E-2,9.308192E-3,8.530646E-3,1.7791487E-2,-1.6336858E-2,-9.939584E-4,-1.2321082E-2,-1.9017735E-2,-9.54721E-3,-1.6420143E-2,-1.9029107E-2,1.5999856E-3],"categories":[],"categories_nodes":[],"categories_segments":[],"categories_sizes":[],"default_left":[0,0,0,0,0,0,0,0,0,0,0,0,0,0,0,0,0,0,0,0,0,0,0,0,0,0,0,0,0],"id":6,"left_children":[1,3,5,7,9,11,13,15,17,-1,19,21,23,25,27,-1,-1,-1,-1,-1,-1,-1,-1,-1,-1,-1,-1,-1,-1],"loss_changes":[3.6309404E3,9.7514966E2,6.4887036E2,8.9982776E2,3.5679077E1,5.8474976E2,4.226919E2,6.450486E2,3.611379E2,0E0,2.9051636E1,6.016572E2,1.5391846E0,1.12866455E2,3.0617627E2,0E0,0E0,0E0,0E0,0E0,0E0,0E0,0E0,0E0,0E0,0E0,0E0,0E0,0E0],"parents":[2147483647,0,0,1,1,2,2,3,3,4,4,5,5,6,6,7,7,8,8,10,10,11,11,12,12,13,13,14,14],"right_children":[2,4,6,8,10,12,14,16,18,-1,20,22,24,26,28,-1,-1,-1,-1,-1,-1,-1,-1,-1,-1,-1,-1,-1,-1],"split_conditions":[1.61394E1,3.700877E0,3.246327E-1,2.6723063E0,3.314122E1,6.009425E1,5.62572E-1,3.795823E0,3.6223705E0,-1.5035874E-2,1.664637E0,2.0101053E-1,6.033366E1,3.3589974E-1,1E0,4.6811076E-3,-1.1623229E-2,-1.4455865E-2,9.308192E-3,8.530646E-3,1.7791487E-2,-1.6336858E-2,-9.939584E-4,-1.2321082E-2,-1.9017735E-2,-9.54721E-3,-1.6420143E-2,-1.9029107E-2,1.5999856E-3],"split_indices":[27,43,48,48,1,4,46,13,43,0,3,11,4,11,51,0,0,0,0,0,0,0,0,0,0,0,0,0,0],"split_type":[0,0,0,0,0,0,0,0,0,0,0,0,0,0,0,0,0,0,0,0,0,0,0,0,0,0,0,0,0],"sum_hessian":[1.2219896E4,7.7128213E3,4.507075E3,7.163089E3,5.497327E2,2.7846836E3,1.7223916E3,6.708741E3,4.5434726E2,2.7480714E0,5.469846E2,2.5359048E3,2.487788E2,1.3141813E3,4.082103E2,6.4575483E3,2.511932E2,3.7814444E2,7.620283E1,3.9245255E1,5.0773938E2,2.8738586E2,2.2485188E3,1.0820057E1,2.3795874E2,3.2161115E2,9.925701E2,9.2097824E1,3.1611246E2],"tree_param":{"num_deleted":"0","num_feature":"52","num_nodes":"29","size_leaf_vector":"1"}},{"base_weights":[2.2403074E-3,4.1287082E-1,-7.0688283E-1,6.605624E-1,-7.9957664E-2,-4.3165845E-1,-1.1883013E0,-2.8735662E-1,8.8679814E-1,-7.971779E-1,6.9235015E-1,-1.8690506E0,-3.0262983E-1,-1.5917265E0,-3.2746172E-1,1.4882169E-2,-1.3307806E-2,-2.0168807E-2,9.4003575E-3,1.2891046E-2,-9.166855E-3,7.932341E-3,-1.5540618E-2,-1.8949773E-2,9.516675E-3,3.3376524E-3,-6.071324E-3,-1.080289E-2,-1.6881973E-2,-1.8877568E-2,1.7911731E-4],"categories":[],"categories_nodes":[],"categories_segments":[],"categories_sizes":[],"default_left":[0,0,0,0,0,0,0,0,0,0,0,0,0,0,0,0,0,0,0,0,0,0,0,0,0,0,0,0,0,0,0],"id":7,"left_children":[1,3,5,7,9,11,13,15,17,19,21,23,25,27,29,-1,-1,-1,-1,-1,-1,-1,-1,-1,-1,-1,-1,-1,-1,-1,-1],"loss_changes":[3.60725E3,9.577085E2,6.014116E2,1.1199578E3,1.4545616E3,5.358004E2,5.731509E2,1.8672073E3,6.535366E2,3.4063757E2,2.8779803E2,1.9210815E1,5.1469617E2,5.365796E1,2.847649E2,0E0,0E0,0E0,0E0,0E0,0E0,0E0,0E0,0E0,0E0,0E0,0E0,0E0,0E0,0E0,0E0],"parents":[2147483647,0,0,1,1,2,2,3,3,4,4,5,5,6,6,7,7,8,8,9,9,10,10,11,11,12,12,13,13,14,14],"right_children":[2,4,6,8,10,12,14,16,18,20,22,24,26,28,30,-1,-1,-1,-1,-1,-1,-1,-1,-1,-1,-1,-1,-1,-1,-1,-1],"split_conditions":[1.61394E1,1.87364E-6,3.2856458E-1,6E0,6.2711477E0,4.298308E0,4.3976563E-1,5E0,-6.0575473E-1,9.332347E-1,3.3460104E-1,6.68813E1,5.468128E0,3.3587363E-1,1E0,1.4882169E-2,-1.3307806E-2,-2.0168807E-2,9.4003575E-3,1.2891046E-2,-9.166855E-3,7.932341E-3,-1.5540618E-2,-1.8949773E-2,9.516675E-3,3.3376524E-3,-6.071324E-3,-1.080289E-2,-1.6881973E-2,-1.8877568E-2,1.7911731E-4],"split_indices":[26,33,46,49,40,35,46,49,12,10,46,21,32,48,51,0,0,0,0,0,0,0,0,0,0,0,0,0,0,0,0],"split_type":[0,0,0,0,0,0,0,0,0,0,0,0,0,0,0,0,0,0,0,0,0,0,0,0,0,0,0,0,0,0,0],"sum_hessian":[1.238606E4,7.84417E3,4.54189E3,5.2201997E3,2.62397E3,2.8910112E3,1.6508789E3,1.00577435E3,4.214426E3,1.3604897E3,1.2634802E3,2.3702644E2,2.6539849E3,1.1235076E3,5.273713E2,3.7211963E2,6.336547E2,7.521422E1,4.1392114E3,7.317983E1,1.2873099E3,1.2097965E3,5.3683792E1,2.3519284E2,1.833597E0,8.588777E2,1.795107E3,1.8022833E2,9.4327924E2,9.476867E1,4.3260263E2],"tree_param":{"num_deleted":"0","num_feature":"52","num_nodes":"31","size_leaf_vector":"1"}},{"base_weights":[1.4001552E-2,4.1646844E-1,-6.769427E-1,3.121505E-1,1.5948781E0,-3.8588303E-1,-1.20799E0,4.145568E-1,-1.5165362E0,1.6175166E0,-1.5803179E-2,-2.4165982E-1,-1.8559787E0,-1.5989442E0,-3.6719486E-1,6.433617E-3,-3.5885567E-4,1.7782258E-2,-1.5913099E-2,1.2480861E-2,1.7545797E-2,-1.5016956E-2,-8.321218E-4,-1.2306547E-2,-1.8786052E-2,-1.6248405E-2,1.0114658E-2,-1.8721197E-2,-1.5827015E-4],"categories":[],"categories_nodes":[],"categories_segments":[],"categories_sizes":[],"default_left":[0,0,0,0,0,0,0,0,0,0,0,0,0,0,0,0,0,0,0,0,0,0,0,0,0,0,0,0,0],"id":8,"left_children":[1,3,5,7,9,11,13,15,17,19,-1,21,23,25,27,-1,-1,-1,-1,-1,-1,-1,-1,-1,-1,-1,-1,-1,-1],"loss_changes":[3.435026E3,9.590587E2,7.023142E2,1.3437595E3,4.8169678E1,6.2257886E2,5.2840283E2,7.000958E2,9.658453E1,2.9738892E1,0E0,5.343629E2,1.4003906E0,7.588159E1,2.7074866E2,0E0,0E0,0E0,0E0,0E0,0E0,0E0,0E0,0E0,0E0,0E0,0E0,0E0,0E0],"parents":[2147483647,0,0,1,1,2,2,3,3,4,4,5,5,6,6,7,7,8,8,9,9,11,11,12,12,13,13,14,14],"right_children":[2,4,6,8,10,12,14,16,18,20,-1,22,24,26,28,-1,-1,-1,-1,-1,-1,-1,-1,-1,-1,-1,-1,-1,-1],"split_conditions":[1.61364E1,3.6223705E0,3.284903E-1,2.6693356E0,1.87364E-6,6.009425E1,4.397781E-1,1.7922914E-2,-1.176962E2,3.744476E0,-1.5803179E-2,2.0097877E-1,6.033366E1,6.0693705E-1,1E0,6.433617E-3,-3.5885567E-4,1.7782258E-2,-1.5913099E-2,1.2480861E-2,1.7545797E-2,-1.5016956E-2,-8.321218E-4,-1.2306547E-2,-1.8786052E-2,-1.6248405E-2,1.0114658E-2,-1.8721197E-2,-1.5827015E-4],"split_indices":[30,11,48,47,12,4,47,34,24,44,0,48,4,11,51,0,0,0,0,0,0,0,0,0,0,0,0,0,0],"split_type":[0,0,0,0,0,0,0,0,0,0,0,0,0,0,0,0,0,0,0,0,0,0,0,0,0,0,0,0,0],"sum_hessian":[1.2350543E4,7.80476E3,4.5457837E3,7.1711987E3,6.3356085E2,2.937505E3,1.6082787E3,6.7916406E3,3.7955798E2,6.2956274E2,3.998096E0,2.6761287E3,2.6137625E2,1.0971996E3,5.1107904E2,4.503588E3,2.2880527E3,7.9172664E0,3.7164072E2,1.7310176E2,4.56461E2,2.9798233E2,2.3781462E3,1.1061499E1,2.5031476E2,1.0867958E3,1.0403897E1,9.592021E1,4.1515884E2],"tree_param":{"num_deleted":"0","num_feature":"52","num_nodes":"29","size_leaf_vector":"1"}},{"base_weights":[-1.3261674E-2,3.857813E-1,-6.903463E-1,2.839814E-1,1.5869977E0,-3.851471E-1,-1.1964077E0,3.7986082E-1,-1.4048041E0,-1.8250966E-2,1.6345083E0,-2.4772596E-1,-1.8365984E0,-1.3809443E0,-2.6821027E-2,6.1047063E-3,-5.9254275E-4,-1.6799064E-2,-2.7651247E-3,1.660397E-2,-1.588698E-2,-5.149403E-3,6.943893E-3,-1.1736858E-2,-1.8606951E-2,-1.5023633E-2,-7.926991E-3,5.061726E-3,-1.904189E-2],"categories":[],"categories_nodes":[],"categories_segments":[],"categories_sizes":[],"default_left":[0,0,0,0,0,0,0,0,0,0,0,0,0,0,0,0,0,0,0,0,0,0,0,0,0,0,0,0,0],"id":9,"left_children":[1,3,5,7,9,11,13,15,17,-1,19,21,23,25,27,-1,-1,-1,-1,-1,-1,-1,-1,-1,-1,-1,-1,-1,-1],"loss_changes":[3.3108806E3,9.423717E2,7.013545E2,1.1516174E3,1.00596924E2,5.65212E2,3.6881567E2,6.813261E2,1.1814868E2,0E0,5.2238037E1,6.5285046E2,1.7318115E0,1.0423633E2,2.3502625E2,0E0,0E0,0E0,0E0,0E0,0E0,0E0,0E0,0E0,0E0,0E0,0E0,0E0,0E0],"parents":[2147483647,0,0,1,1,2,2,3,3,4,4,5,5,6,6,7,7,8,8,10,10,11,11,12,12,13,13,14,14],"right_children":[2,4,6,8,10,12,14,16,18,-1,20,22,24,26,28,-1,-1,-1,-1,-1,-1,-1,-1,-1,-1,-1,-1,-1,-1],"split_conditions":[1.613612E1,3.6223705E0,3.246327E-1,2.6723063E0,3.314122E1,6.009425E1,8.9930886E-1,1.69177E-2,3.4847643E0,-1.8250966E-2,1.87364E-6,7.535385E0,6.033366E1,4.550747E-1,5E0,6.1047063E-3,-5.9254275E-4,-1.6799064E-2,-2.7651247E-3,1.660397E-2,-1.588698E-2,-5.149403E-3,6.943893E-3,-1.1736858E-2,-1.8606951E-2,-1.5023633E-2,-7.926991E-3,5.061726E-3,-1.904189E-2],"split_indices":[8,45,48,48,1,4,11,35,48,0,12,36,4,48,49,0,0,0,0,0,0,0,0,0,0,0,0,0,0],"split_type":[0,0,0,0,0,0,0,0,0,0,0,0,0,0,0,0,0,0,0,0,0,0,0,0,0,0,0,0,0],"sum_hessian":[1.22521E4,7.7091226E3,4.5429766E3,7.107977E3,6.0114557E2,2.8349907E3,1.707986E3,6.7268413E3,3.811358E2,7.741665E0,5.9340393E2,2.5908625E3,2.441281E2,1.4750698E3,2.3291618E2,4.4102974E3,2.3165437E3,3.0603006E2,7.510574E1,5.891567E2,4.247267E0,2.0187369E3,5.721256E2,1.0306262E1,2.3382184E2,1.2214067E3,2.5366307E2,1.8198123E2,5.0934944E1],"tree_param":{"num_deleted":"0","num_feature":"52","num_nodes":"29","size_leaf_vector":"1"}},{"base_weights":[8.606047E-3,4.0696707E-1,-6.879093E-1,3.2008487E-1,1.7518983E0,-3.9933038E-1,-1.2046511E0,7.7912676E-1,8.583172E-2,1.7657506E0,-1.7491274E-1,-2.598294E-1,-1.8478125E-2,-1.4238551E0,5.4313034E-2,-1.8625805E-2,8.727384E-3,4.045486E-3,-5.4200334E-3,9.945155E-3,1.7980447E-2,1.1466217E-2,-1.3522778E-2,-4.0785973E-3,1.4204553E-2,-1.54280765E-2,-8.654543E-3,-1.8690461E-2,4.2672507E-3],"categories":[],"categories_nodes":[],"categories_segments":[],"categories_sizes":[],"default_left":[0,0,0,0,0,0,0,0,0,0,0,0,0,0,0,0,0,0,0,0,0,0,0,0,0,0,0,0,0],"id":10,"left_children":[1,3,5,7,9,11,13,15,17,19,21,23,-1,25,27,-1,-1,-1,-1,-1,-1,-1,-1,-1,-1,-1,-1,-1,-1],"loss_changes":[3.4356904E3,9.1989343E2,6.71345E2,7.9571606E2,1.3060791E1,5.839578E2,4.4546924E2,6.1995105E2,9.809307E2,1.002832E1,8.272326E0,6.57088E2,0E0,8.997168E1,1.7291861E2,0E0,0E0,0E0,0E0,0E0,0E0,0E0,0E0,0E0,0E0,0E0,0E0,0E0,0E0],"parents":[2147483647,0,0,1,1,2,2,3,3,4,4,5,5,6,6,7,7,8,8,9,9,10,10,11,11,13,13,14,14],"right_children":[2,4,6,8,10,12,14,16,18,20,22,24,-1,26,28,-1,-1,-1,-1,-1,-1,-1,-1,-1,-1,-1,-1,-1,-1],"split_conditions":[1.621335E1,3.7447805E0,3.284903E-1,-7.6450146E-4,1.109478E1,6.009425E1,8.992416E-1,-6.0575473E-1,3.272029E-1,1.664637E0,-2.640075E-1,1.025835E1,-1.8478125E-2,4.550747E-1,4.0637546E0,-1.8625805E-2,8.727384E-3,4.045486E-3,-5.4200334E-3,9.945155E-3,1.7980447E-2,1.1466217E-2,-1.3522778E-2,-4.0785973E-3,1.4204553E-2,-1.54280765E-2,-8.654543E-3,-1.8690461E-2,4.2672507E-3],"split_indices":[30,43,48,12,29,4,43,34,47,3,0,6,0,48,40,0,0,0,0,0,0,0,0,0,0,0,0,0,0],"split_type":[0,0,0,0,0,0,0,0,0,0,0,0,0,0,0,0,0,0,0,0,0,0,0,0,0,0,0,0,0],"sum_hessian":[1.2380438E4,7.8761904E3,4.5042476E3,7.3994277E3,4.76763E2,2.8913313E3,1.6129164E3,2.4993606E3,4.900067E3,4.734429E2,3.3201063E0,2.6384097E3,2.529216E2,1.3736185E3,2.3929785E2,8.488965E1,2.414471E3,3.2503838E3,1.6496831E3,2.030571E1,4.531372E2,1.5765822E0,1.743524E0,2.4254856E3,2.1292407E2,1.1309386E3,2.4267989E2,3.8166157E1,2.011317E2],"tree_param":{"num_deleted":"0","num_feature":"52","num_nodes":"29","size_leaf_vector":"1"}},{"base_weights":[8.820582E-3,4.062805E-1,-6.792993E-1,3.078862E-1,1.5313116E0,-3.8688844E-1,-1.2205737E0,4.047424E-1,-1.3967973E0,-1.8551497E-2,1.5919636E0,-1.8082116E0,-2.6589122E-1,-1.4477258E0,4.693217E-2,6.273813E-3,-2.9159608E-4,1.8367529E-2,-1.4973288E-2,1.6136073E-2,-1.5377121E-2,-1.8617954E-2,1.1733734E-2,3.5683985E-3,-5.687812E-3,-1.5826494E-2,-9.609633E-3,6.186064E-3,-1.8912632E-2],"categories":[],"categories_nodes":[],"categories_segments":[],"categories_sizes":[],"default_left":[0,0,0,0,0,0,0,0,0,0,0,0,0,0,0,0,0,0,0,0,0,0,0,0,0,0,0,0,0],"id":11,"left_children":[1,3,5,7,9,11,13,15,17,-1,19,21,23,25,27,-1,-1,-1,-1,-1,-1,-1,-1,-1,-1,-1,-1,-1,-1],"loss_changes":[3.3652024E3,8.628839E2,7.1253955E2,1.1849403E3,1.3173828E2,5.0277264E2,4.5486353E2,6.5580176E2,1.2819037E2,0E0,4.424243E1,3.8834656E1,5.0907782E2,8.645703E1,2.682364E2,0E0,0E0,0E0,0E0,0E0,0E0,0E0,0E0,0E0,0E0,0E0,0E0,0E0,0E0],"parents":[2147483647,0,0,1,1,2,2,3,3,4,4,5,5,6,6,7,7,8,8,10,10,11,11,12,12,13,13,14,14],"right_children":[2,4,6,8,10,12,14,16,18,-1,20,22,24,26,28,-1,-1,-1,-1,-1,-1,-1,-1,-1,-1,-1,-1,-1,-1],"split_conditions":[1.61394E1,3.6223705E0,3.296641E-1,2.6680286E0,3.314122E1,4.298308E0,8.992416E-1,1.7922914E-2,-1.173694E2,-1.8551497E-2,1.87364E-6,3.652422E0,5.446865E0,4.1993353E-1,5E0,6.273813E-3,-2.9159608E-4,1.8367529E-2,-1.4973288E-2,1.6136073E-2,-1.5377121E-2,-1.8617954E-2,1.1733734E-2,3.5683985E-3,-5.687812E-3,-1.5826494E-2,-9.609633E-3,6.186064E-3,-1.8912632E-2],"split_indices":[27,43,48,11,1,35,43,34,21,0,31,16,32,48,49,0,0,0,0,0,0,0,0,0,0,0,0,0,0],"split_type":[0,0,0,0,0,0,0,0,0,0,0,0,0,0,0,0,0,0,0,0,0,0,0,0,0,0,0,0,0],"sum_hessian":[1.2302201E4,7.798295E3,4.5039067E3,7.1722866E3,6.260083E2,2.9252976E3,1.5786089E3,6.7874043E3,3.8488202E2,1.0494057E1,6.155143E2,2.2839986E2,2.696898E3,1.3385778E3,2.4003116E2,4.48544E3,2.3019644E3,1.1084484E1,3.7379755E2,6.1176794E2,3.7463346E0,2.2473654E2,3.663304E0,8.824447E2,1.8144531E3,1.0463052E3,2.9227255E2,1.858849E2,5.414625E1],"tree_param":{"num_deleted":"0","num_feature":"52","num_nodes":"29","size_leaf_vector":"1"}},{"base_weights":[4.2088237E-3,4.0078163E-1,-6.8274707E-1,3.0771935E-1,1.6208436E0,-3.7380835E-1,-1.1937587E0,4.418487E-1,-5.400769E-1,-1.5782535E-2,1.6440399E0,-2.360545E-1,-1.7991722E0,-1.4123739E0,9.965042E-2,7.0292363E-3,-3.99281E-4,-6.768888E-3,9.269571E-3,5.192301E-3,1.7054714E-2,-3.780065E-3,1.3000545E-2,-1.0105964E-2,-1.823088E-2,-1.5380444E-2,-8.616865E-3,-1.860902E-2,4.558303E-3],"categories":[],"categories_nodes":[],"categories_segments":[],"categories_sizes":[],"default_left":[0,0,0,0,0,0,0,0,0,0,0,0,0,0,0,0,0,0,0,0,0,0,0,0,0,0,0,0,0],"id":12,"left_children":[1,3,5,7,9,11,13,15,17,-1,19,21,23,25,27,-1,-1,-1,-1,-1,-1,-1,-1,-1,-1,-1,-1,-1,-1],"loss_changes":[3.3606423E3,8.875039E2,7.1233545E2,8.267024E2,4.370862E1,5.523532E2,4.8102197E2,7.8937964E2,1.9997668E2,0E0,3.7156372E1,5.605244E2,2.8338013E0,9.935791E1,1.7320879E2,0E0,0E0,0E0,0E0,0E0,0E0,0E0,0E0,0E0,0E0,0E0,0E0,0E0,0E0],"parents":[2147483647,0,0,1,1,2,2,3,3,4,4,5,5,6,6,7,7,8,8,10,10,11,11,12,12,13,13,14,14],"right_children":[2,4,6,8,10,12,14,16,18,-1,20,22,24,26,28,-1,-1,-1,-1,-1,-1,-1,-1,-1,-1,-1,-1,-1,-1],"split_conditions":[1.61394E1,3.700707E0,3.246327E-1,1.1910999E0,3.314122E1,6.009425E1,8.9930886E-1,1.69177E-2,3.622199E0,-1.5782535E-2,1.664637E0,1.006164E1,6.033366E1,4.2856622E-1,4.1436753E0,7.0292363E-3,-3.99281E-4,-6.768888E-3,9.269571E-3,5.192301E-3,1.7054714E-2,-3.780065E-3,1.3000545E-2,-1.0105964E-2,-1.823088E-2,-1.5380444E-2,-8.616865E-3,-1.860902E-2,4.558303E-3],"split_indices":[27,11,48,11,1,4,11,36,48,0,3,6,4,48,42,0,0,0,0,0,0,0,0,0,0,0,0,0,0],"split_type":[0,0,0,0,0,0,0,0,0,0,0,0,0,0,0,0,0,0,0,0,0,0,0,0,0,0,0,0,0],"sum_hessian":[1.2333887E4,7.8199336E3,4.5139536E3,7.266891E3,5.5304224E2,2.814277E3,1.6996763E3,6.2746597E3,9.9223145E2,3.4985802E0,5.4954364E2,2.5673245E3,2.4695268E2,1.4538508E3,2.4582544E2,4.0691353E3,2.2055247E3,9.080844E2,8.4147064E1,2.8948627E1,5.2059503E2,2.3508372E3,2.1648726E2,8.542355E0,2.3841034E2,1.1822585E3,2.7159225E2,3.7144276E1,2.0868117E2],"tree_param":{"num_deleted":"0","num_feature":"52","num_nodes":"29","size_leaf_vector":"1"}},{"base_weights":[2.5302465E-3,3.7765715E-1,-6.3724613E-1,2.787914E-1,1.5338554E0,-3.6372784E-1,-1.0924731E0,3.741709E-1,-1.4187707E0,-1.7776484E-2,1.5781176E0,-1.842022E0,-2.3428445E-1,-1.29584E0,8.0904774E-2,-1.9726675E-2,4.1517927E-3,-1.5595046E-2,6.3158744E-3,1.6016653E-2,-1.5527739E-2,-1.8691966E-2,1.2517229E-2,4.200569E-3,-5.1730913E-3,-7.700878E-3,-1.4452202E-2,-1.835487E-2,4.410383E-3],"categories":[],"categories_nodes":[],"categories_segments":[],"categories_sizes":[],"default_left":[0,0,0,0,0,0,0,0,0,0,0,0,0,0,0,0,0,0,0,0,0,0,0,0,0,0,0,0,0],"id":13,"left_children":[1,3,5,7,9,11,13,15,17,-1,19,21,23,25,27,-1,-1,-1,-1,-1,-1,-1,-1,-1,-1,-1,-1,-1,-1],"loss_changes":[2.942215E3,8.829563E2,5.6380664E2,1.1534343E3,9.200232E1,5.4150024E2,4.0582166E2,6.4972076E2,1.1034766E2,0E0,4.6799316E1,2.1497314E1,4.8268625E2,1.1269702E2,1.747914E2,0E0,0E0,0E0,0E0,0E0,0E0,0E0,0E0,0E0,0E0,0E0,0E0,0E0,0E0],"parents":[2147483647,0,0,1,1,2,2,3,3,4,4,5,5,6,6,7,7,8,8,10,10,11,11,12,12,13,13,14,14],"right_children":[2,4,6,8,10,12,14,16,18,-1,20,22,24,26,28,-1,-1,-1,-1,-1,-1,-1,-1,-1,-1,-1,-1,-1,-1],"split_conditions":[1.61364E1,3.6226146E0,3.246327E-1,2.6712854E0,3.314122E1,4.298308E0,8.992416E-1,-1.8754676E-1,6.913479E0,-1.7776484E-2,1.87364E-6,3.233472E-1,5.392749E0,3.358799E-1,4.1436753E0,-1.9726675E-2,4.1517927E-3,-1.5595046E-2,6.3158744E-3,1.6016653E-2,-1.5527739E-2,-1.8691966E-2,1.2517229E-2,4.200569E-3,-5.1730913E-3,-7.700878E-3,-1.4452202E-2,-1.835487E-2,4.410383E-3],"split_indices":[30,46,48,46,1,35,43,41,0,0,12,48,36,43,42,0,0,0,0,0,0,0,0,0,0,0,0,0,0],"split_type":[0,0,0,0,0,0,0,0,0,0,0,0,0,0,0,0,0,0,0,0,0,0,0,0,0,0,0,0,0],"sum_hessian":[1.2257363E4,7.7270747E3,4.5302886E3,7.11953E3,6.0754504E2,2.8310698E3,1.6992186E3,6.741529E3,3.78001E2,7.4969E0,6.0004816E2,2.2687202E2,2.6041978E3,1.4481284E3,2.5109027E2,1.1496873E2,6.62656E3,3.53946E2,2.4055002E1,5.9605365E2,3.9945297E0,2.2528896E2,1.5830704E0,7.861553E2,1.8180425E3,3.217757E2,1.1263528E3,3.9072994E1,2.1201727E2],"tree_param":{"num_deleted":"0","num_feature":"52","num_nodes":"29","size_leaf_vector":"1"}},{"base_weights":[1.0519417E-2,3.7750065E-1,-6.2762004E-1,2.8660938E-1,1.472441E0,-3.5066253E-1,-1.1189249E0,3.795345E-1,-1.3796678E0,9.629162E-1,1.6640317E0,-1.774734E0,-2.267669E-1,-1.351629E0,1.5078402E-1,-1.9619389E-2,4.206188E-3,-1.5328289E-2,7.0430366E-3,1.1831408E-2,-2.039104E-3,8.897486E-3,1.700699E-2,-1.8277777E-2,1.5485574E-2,3.7885762E-3,-5.290651E-3,-1.5037741E-2,-7.2308793E-3,6.3480735E-3,-1.868202E-2],"categories":[],"categories_nodes":[],"categories_segments":[],"categories_sizes":[],"default_left":[0,0,0,0,0,0,0,0,0,0,0,0,0,0,0,0,0,0,0,0,0,0,0,0,0,0,0,0,0,0,0],"id":14,"left_children":[1,3,5,7,9,11,13,15,17,19,21,23,25,27,29,-1,-1,-1,-1,-1,-1,-1,-1,-1,-1,-1,-1,-1,-1,-1,-1],"loss_changes":[2.8916938E3,7.7977075E2,6.1306323E2,1.1215392E3,5.703235E1,5.0853873E2,4.8027893E2,6.6057196E2,1.2321277E2,4.3027695E1,1.0840454E1,4.350293E1,4.8624557E2,1.302351E2,2.4799715E2,0E0,0E0,0E0,0E0,0E0,0E0,0E0,0E0,0E0,0E0,0E0,0E0,0E0,0E0,0E0,0E0],"parents":[2147483647,0,0,1,1,2,2,3,3,4,4,5,5,6,6,7,7,8,8,9,9,10,10,11,11,12,12,13,13,14,14],"right_children":[2,4,6,8,10,12,14,16,18,20,22,24,26,28,30,-1,-1,-1,-1,-1,-1,-1,-1,-1,-1,-1,-1,-1,-1,-1,-1],"split_conditions":[1.621127E1,3.6223705E0,3.284903E-1,2.6712854E0,3.744476E0,4.298308E0,8.9930886E-1,-1.8761292E-1,4.4411316E0,9.08858E0,1.664637E0,3.66636E0,5.4677696E0,4.397781E-1,5E0,-1.9619389E-2,4.206188E-3,-1.5328289E-2,7.0430366E-3,1.1831408E-2,-2.039104E-3,8.897486E-3,1.700699E-2,-1.8277777E-2,1.5485574E-2,3.7885762E-3,-5.290651E-3,-1.5037741E-2,-7.2308793E-3,6.3480735E-3,-1.868202E-2],"split_indices":[28,45,48,43,11,35,11,10,42,30,3,17,33,48,49,0,0,0,0,0,0,0,0,0,0,0,0,0,0,0,0],"split_type":[0,0,0,0,0,0,0,0,0,0,0,0,0,0,0,0,0,0,0,0,0,0,0,0,0,0,0,0,0,0,0],"sum_hessian":[1.234588E4,7.838515E3,4.5073647E3,7.238876E3,5.996393E2,2.883562E3,1.623803E3,6.8572334E3,3.816428E2,1.6550752E2,4.3413174E2,2.29727E2,2.653835E3,1.3722426E3,2.5156041E2,1.1743837E2,6.739795E3,3.5576068E2,2.5882107E1,1.3921783E2,2.6289692E1,2.0771688E1,4.1336008E2,2.2656084E2,3.1661742E0,8.835257E2,1.7703093E3,1.1036901E3,2.685524E2,2.0346753E2,4.8092884E1],"tree_param":{"num_deleted":"0","num_feature":"52","num_nodes":"31","size_leaf_vector":"1"}},{"base_weights":[-2.4220082E-3,3.6799777E-1,-6.415358E-1,2.7456868E-1,1.506101E0,-3.546527E-1,-1.1591282E0,3.6787343E-1,-1.4760414E0,-1.7709302E-2,1.5511888E0,-2.1650228E-1,-1.7757392E0,-1.4641969E0,-2.8472042E-1,-1.9401748E-2,4.085941E-3,-1.5696857E-2,9.536215E-3,1.5675893E-2,-1.4097737E-2,-1.5511794E-2,-4.8435832E-4,-1.1560936E-2,-1.7980596E-2,-1.5196767E-2,5.91263E-4,3.8495006E-3,-1.2555579E-2],"categories":[],"categories_nodes":[],"categories_segments":[],"categories_sizes":[],"default_left":[0,0,0,0,0,0,0,0,0,0,0,0,0,0,0,0,0,0,0,0,0,0,0,0,0,0,0,0,0],"id":15,"left_children":[1,3,5,7,9,11,13,15,17,-1,19,21,23,25,27,-1,-1,-1,-1,-1,-1,-1,-1,-1,-1,-1,-1,-1,-1],"loss_changes":[2.9179038E3,8.2928467E2,6.7111804E2,1.1785802E3,9.017883E1,5.711398E2,4.296709E2,6.444052E2,8.457648E1,0E0,3.0581177E1,5.953319E2,1.4866943E0,1.01086426E2,2.7241028E2,0E0,0E0,0E0,0E0,0E0,0E0,0E0,0E0,0E0,0E0,0E0,0E0,0E0,0E0],"parents":[2147483647,0,0,1,1,2,2,3,3,4,4,5,5,6,6,7,7,8,8,10,10,11,11,12,12,13,13,14,14],"right_children":[2,4,6,8,10,12,14,16,18,-1,20,22,24,26,28,-1,-1,-1,-1,-1,-1,-1,-1,-1,-1,-1,-1,-1,-1],"split_conditions":[1.621125E1,3.6226146E0,3.2855672E-1,2.6712854E0,3.314122E1,6.009425E1,5.2165747E-1,-1.8754676E-1,1.256549E1,-1.7709302E-2,1.87364E-6,2.0101053E-1,6.033366E1,5.333555E-1,5E0,-1.9401748E-2,4.085941E-3,-1.5696857E-2,9.536215E-3,1.5675893E-2,-1.4097737E-2,-1.5511794E-2,-4.8435832E-4,-1.1560936E-2,-1.7980596E-2,-1.5196767E-2,5.91263E-4,3.8495006E-3,-1.2555579E-2],"split_indices":[27,46,45,46,1,4,11,37,27,0,31,11,4,48,49,0,0,0,0,0,0,0,0,0,0,0,0,0,0],"split_type":[0,0,0,0,0,0,0,0,0,0,0,0,0,0,0,0,0,0,0,0,0,0,0,0,0,0,0,0,0],"sum_hessian":[1.2323334E4,7.801904E3,4.52143E3,7.2111665E3,5.9073737E2,2.910132E3,1.6112979E3,6.8470205E3,3.6414557E2,7.4979916E0,5.832394E2,2.6533408E3,2.5679123E2,1.1940396E3,4.172583E2,1.1789819E2,6.7291226E3,3.509723E2,1.3173273E1,5.804947E2,2.7447402E0,2.9582858E2,2.3575125E3,1.0763954E1,2.4602727E2,1.152083E3,4.1956642E1,2.4728674E2,1.6997156E2],"tree_param":{"num_deleted":"0","num_feature":"52","num_nodes":"29","size_leaf_vector":"1"}},{"base_weights":[-8.404226E-3,3.5643744E-1,-6.3610816E-1,2.6423538E-1,1.4795619E0,-3.5214418E-1,-1.1492401E0,3.5436177E-1,-1.3778723E0,-1.7982595E-2,1.5364653E0,-1.7110671E0,-2.3005587E-1,-1.4463207E0,-2.6808962E-1,5.750899E-3,-6.841581E-4,-1.5486761E-2,4.053664E-3,1.5605107E-2,-1.5398355E-2,2.1714375E-3,-1.810087E-2,3.4405484E-3,-5.680229E-3,-1.4774192E-2,7.989292E-3,-5.8707558E-3,1.3183245E-2],"categories":[],"categories_nodes":[],"categories_segments":[],"categories_sizes":[],"default_left":[0,0,0,0,0,0,0,0,0,0,0,0,0,0,0,0,0,0,0,0,0,0,0,0,0,0,0,0,0],"id":16,"left_children":[1,3,5,7,9,11,13,15,17,-1,19,21,23,25,27,-1,-1,-1,-1,-1,-1,-1,-1,-1,-1,-1,-1,-1,-1],"loss_changes":[2.8082131E3,8.0266266E2,6.563701E2,1.0612998E3,1.1245776E2,4.812517E2,4.1983716E2,6.342015E2,1.14279236E2,0E0,4.520398E1,4.605658E1,5.1727E2,8.499121E1,2.062231E2,0E0,0E0,0E0,0E0,0E0,0E0,0E0,0E0,0E0,0E0,0E0,0E0,0E0,0E0],"parents":[2147483647,0,0,1,1,2,2,3,3,4,4,5,5,6,6,7,7,8,8,10,10,11,11,12,12,13,13,14,14],"right_children":[2,4,6,8,10,12,14,16,18,-1,20,22,24,26,28,-1,-1,-1,-1,-1,-1,-1,-1,-1,-1,-1,-1,-1,-1],"split_conditions":[1.621125E1,3.6223705E0,3.2856458E-1,2.6680286E0,3.314122E1,4.3258057E0,5.6270117E-1,1.69177E-2,4.0649714E0,-1.7982595E-2,1.87364E-6,1.296384E1,5.635213E0,1.3094399E0,6.2738266E0,5.750899E-3,-6.841581E-4,-1.5486761E-2,4.053664E-3,1.5605107E-2,-1.5398355E-2,2.1714375E-3,-1.810087E-2,3.4405484E-3,-5.680229E-3,-1.4774192E-2,7.989292E-3,-5.8707558E-3,1.3183245E-2],"split_indices":[26,45,46,11,1,35,43,35,42,0,12,28,33,48,35,0,0,0,0,0,0,0,0,0,0,0,0,0,0],"split_type":[0,0,0,0,0,0,0,0,0,0,0,0,0,0,0,0,0,0,0,0,0,0,0,0,0,0,0,0,0],"sum_hessian":[1.2260276E4,7.7538955E3,4.5063804E3,7.1667793E3,5.8711615E2,2.9020762E3,1.6043044E3,6.7946426E3,3.721369E2,9.496295E0,5.776199E2,2.3816199E2,2.663914E3,1.1993136E3,4.049908E2,4.463783E3,2.3308591E3,3.3972827E2,3.2408627E1,5.736289E2,3.9909642E0,1.1574739E1,2.2658725E2,9.870968E2,1.6768173E3,1.1832664E3,1.6047234E1,3.3771518E2,6.727566E1],"tree_param":{"num_deleted":"0","num_feature":"52","num_nodes":"29","size_leaf_vector":"1"}},{"base_weights":[8.67975E-3,3.7925953E-1,-6.425119E-1,2.8449774E-1,1.4805529E0,-3.6352086E-1,-1.1515298E0,3.7231773E-1,-1.3154136E0,1.5080059E0,-1.583662E-2,-2.3162979E-1,-1.7787E-2,-1.4909796E0,-2.2207133E-1,4.3233107E-3,-1.2783563E-2,-1.6106455E-2,-3.5179579E-3,5.694441E-3,1.5801534E-2,-5.1051034E-3,7.382807E-3,-1.5190989E-2,7.1219006E-3,-6.153744E-3,1.6032862E-2],"categories":[],"categories_nodes":[],"categories_segments":[],"categories_sizes":[],"default_left":[0,0,0,0,0,0,0,0,0,0,0,0,0,0,0,0,0,0,0,0,0,0,0,0,0,0,0],"id":17,"left_children":[1,3,5,7,9,11,13,15,17,19,-1,21,-1,23,25,-1,-1,-1,-1,-1,-1,-1,-1,-1,-1,-1,-1],"loss_changes":[2.958626E3,8.15015E2,6.310493E2,1.0115327E3,5.4444824E1,5.359742E2,4.9622192E2,6.763737E2,1.06018005E2,4.0666504E1,0E0,7.11741E2,0E0,7.2489746E1,3.040901E2,0E0,0E0,0E0,0E0,0E0,0E0,0E0,0E0,0E0,0E0,0E0,0E0],"parents":[2147483647,0,0,1,1,2,2,3,3,4,4,5,5,6,6,7,7,8,8,9,9,11,11,13,13,14,14],"right_children":[2,4,6,8,10,12,14,16,18,20,-1,22,-1,24,26,-1,-1,-1,-1,-1,-1,-1,-1,-1,-1,-1,-1],"split_conditions":[1.621154E1,3.6223705E0,3.2968816E-1,2.6723063E0,1.87364E-6,6.009425E1,5.797225E-1,3.795123E0,7.12199E0,1.664637E0,-1.583662E-2,7.535385E0,-1.7787E-2,6.0693705E-1,6.3529425E0,4.3233107E-3,-1.2783563E-2,-1.6106455E-2,-3.5179579E-3,5.694441E-3,1.5801534E-2,-5.1051034E-3,7.382807E-3,-1.5190989E-2,7.1219006E-3,-6.153744E-3,1.6032862E-2],"split_indices":[8,11,47,48,12,4,46,7,28,3,0,12,0,11,34,0,0,0,0,0,0,0,0,0,0,0,0],"split_type":[0,0,0,0,0,0,0,0,0,0,0,0,0,0,0,0,0,0,0,0,0,0,0,0,0,0,0],"sum_hessian":[1.2258246E4,7.812647E3,4.445599E3,7.194821E3,6.1782635E2,2.8727617E3,1.5728374E3,6.8211704E3,3.736504E2,6.128436E2,4.982721E0,2.628917E3,2.4384464E2,1.1516399E3,4.2119745E2,6.5825864E3,2.3858418E2,2.8550598E2,8.81444E1,4.4381485E1,5.6846216E2,2.042194E3,5.8672296E2,1.1374332E3,1.4206678E1,3.470769E2,7.412052E1],"tree_param":{"num_deleted":"0","num_feature":"52","num_nodes":"27","size_leaf_vector":"1"}},{"base_weights":[4.4909268E-4,3.7505293E-1,-6.409801E-1,2.8042427E-1,1.4503093E0,-3.446572E-1,-1.1832159E0,3.722518E-1,-1.3998702E0,-1.7753495E-2,1.500062E0,-2.0861866E-1,-1.7659193E-2,-1.4574212E0,-4.2795464E-1,-1.9389348E-2,4.130641E-3,-1.5746308E-2,3.408637E-3,1.089142E-2,1.6335933E-2,-4.7706272E-3,7.4803033E-3,-1.4928165E-2,3.7192064E-3,2.417666E-3,-1.3178062E-2],"categories":[],"categories_nodes":[],"categories_segments":[],"categories_sizes":[],"default_left":[0,0,0,0,0,0,0,0,0,0,0,0,0,0,0,0,0,0,0,0,0,0,0,0,0,0,0],"id":18,"left_children":[1,3,5,7,9,11,13,15,17,-1,19,21,-1,23,25,-1,-1,-1,-1,-1,-1,-1,-1,-1,-1,-1,-1],"loss_changes":[2.9551174E3,7.895974E2,7.2816235E2,1.1017998E3,1.03413086E2,5.668079E2,3.311267E2,6.392224E2,1.1311157E2,0E0,3.2174072E1,6.8817554E2,0E0,7.6625244E1,2.5544318E2,0E0,0E0,0E0,0E0,0E0,0E0,0E0,0E0,0E0,0E0,0E0,0E0],"parents":[2147483647,0,0,1,1,2,2,3,3,4,4,5,5,6,6,7,7,8,8,10,10,11,11,13,13,14,14],"right_children":[2,4,6,8,10,12,14,16,18,-1,20,22,-1,24,26,-1,-1,-1,-1,-1,-1,-1,-1,-1,-1,-1,-1],"split_conditions":[1.61394E1,3.6226146E0,3.2856458E-1,2.6723063E0,3.314122E1,6.009425E1,5.008304E-1,-1.8761292E-1,4.481932E0,-1.7753495E-2,3.7447805E0,7.535385E0,-1.7659193E-2,6.0552293E-1,5E0,-1.9389348E-2,4.130641E-3,-1.5746308E-2,3.408637E-3,1.089142E-2,1.6335933E-2,-4.7706272E-3,7.4803033E-3,-1.4928165E-2,3.7192064E-3,2.417666E-3,-1.3178062E-2],"split_indices":[26,46,44,48,1,4,43,38,18,0,43,12,0,48,49,0,0,0,0,0,0,0,0,0,0,0,0],"split_type":[0,0,0,0,0,0,0,0,0,0,0,0,0,0,0,0,0,0,0,0,0,0,0,0,0,0,0],"sum_hessian":[1.2296546E4,7.763163E3,4.533383E3,7.136382E3,6.2678125E2,2.9324714E3,1.6009115E3,6.7673276E3,3.6905383E2,8.993835E0,6.177874E2,2.677351E3,2.551205E2,1.173816E3,4.270955E2,1.1662086E2,6.650707E3,3.354698E2,3.3584038E1,1.5376335E2,4.6402408E2,2.0910776E3,5.862733E2,1.1517157E3,2.2100285E1,2.441051E2,1.8299039E2],"tree_param":{"num_deleted":"0","num_feature":"52","num_nodes":"27","size_leaf_vector":"1"}},{"base_weights":[6.0935025E-3,3.6387467E-1,-6.1107945E-1,2.7367145E-1,1.4440826E0,-3.3949205E-1,-1.1038436E0,3.6557266E-1,-1.3666744E0,9.756895E-1,1.6118885E0,-2.0618132E-1,-1.7276604E0,-1.4024799E0,-2.0214018E-1,4.255707E-3,-1.17359115E-2,-1.6305631E-2,-5.1305452E-3,1.7583005E-2,6.5197092E-3,6.521837E-3,1.650214E-2,-4.5155734E-3,6.2639997E-3,-1.096486E-2,-1.750237E-2,-1.4484825E-2,3.330382E-3,-1.7785667E-2,2.3087005E-3],"categories":[],"categories_nodes":[],"categories_segments":[],"categories_sizes":[],"default_left":[0,0,0,0,0,0,0,0,0,0,0,0,0,0,0,0,0,0,0,0,0,0,0,0,0,0,0,0,0,0,0],"id":19,"left_children":[1,3,5,7,9,11,13,15,17,19,21,23,25,27,29,-1,-1,-1,-1,-1,-1,-1,-1,-1,-1,-1,-1,-1,-1,-1,-1],"loss_changes":[2.709768E3,7.565409E2,6.0231006E2,1.0815107E3,4.5466675E1,5.371835E2,4.30485E2,6.2764923E2,8.4908875E1,3.9487396E1,1.507373E1,5.4193976E2,1.7056885E0,9.6410645E1,2.728819E2,0E0,0E0,0E0,0E0,0E0,0E0,0E0,0E0,0E0,0E0,0E0,0E0,0E0,0E0,0E0,0E0],"parents":[2147483647,0,0,1,1,2,2,3,3,4,4,5,5,6,6,7,7,8,8,9,9,10,10,11,11,12,12,13,13,14,14],"right_children":[2,4,6,8,10,12,14,16,18,20,22,24,26,28,30,-1,-1,-1,-1,-1,-1,-1,-1,-1,-1,-1,-1,-1,-1,-1,-1],"split_conditions":[1.613585E1,3.6223705E0,3.2856458E-1,2.6693356E0,3.744476E0,6.009425E1,6.0693705E-1,3.795394E0,7.47636E0,-4.7577806E0,1.664637E0,7.422966E0,6.033366E1,6.481505E-1,1E0,4.255707E-3,-1.17359115E-2,-1.6305631E-2,-5.1305452E-3,1.7583005E-2,6.5197092E-3,6.521837E-3,1.650214E-2,-4.5155734E-3,6.2639997E-3,-1.096486E-2,-1.750237E-2,-1.4484825E-2,3.330382E-3,-1.7785667E-2,2.3087005E-3],"split_indices":[28,11,44,47,11,4,11,16,29,16,3,12,4,48,51,0,0,0,0,0,0,0,0,0,0,0,0,0,0,0,0],"split_type":[0,0,0,0,0,0,0,0,0,0,0,0,0,0,0,0,0,0,0,0,0,0,0,0,0,0,0,0,0,0,0],"sum_hessian":[1.2269778E4,7.7673696E3,4.502409E3,7.1698975E3,5.974719E2,2.9037134E3,1.5986956E3,6.7902476E3,3.7964993E2,1.5938853E2,4.3808337E2,2.6503403E3,2.5337305E2,1.2005338E3,3.9816168E2,6.5361846E3,2.5406299E2,2.8930408E2,9.034586E1,4.5341324E1,1.1404721E2,1.7514782E1,4.205686E2,2.0473954E3,6.0294495E2,1.046172E1,2.4291132E2,1.1696947E3,3.0839174E1,8.51296E1,3.130321E2],"tree_param":{"num_deleted":"0","num_feature":"52","num_nodes":"31","size_leaf_vector":"1"}},{"base_weights":[-1.3062607E-3,3.5032883E-1,-6.265289E-1,5.7546085E-1,-7.316102E-2,-3.6352715E-1,-1.1020472E0,-3.5228255E-1,7.9736745E-1,-7.4706393E-1,6.514313E-1,-1.7827804E0,-2.377672E-1,-1.3293858E0,9.490667E-2,1.4043578E-2,-1.3524129E-2,-2.0202443E-2,8.491998E-3,1.3250346E-2,-8.700947E-3,3.980588E-3,1.589933E-2,-1.8093823E-2,7.7168103E-3,3.8254468E-3,-6.0189203E-3,1.0620602E-2,-1.3608153E-2,6.1035077E-3,-1.8327601E-2],"categories":[],"categories_nodes":[],"categories_segments":[],"categories_sizes":[],"default_left":[0,0,0,0,0,0,0,0,0,0,0,0,0,0,0,0,0,0,0,0,0,0,0,0,0,0,0,0,0,0,0],"id":20,"left_children":[1,3,5,7,9,11,13,15,17,19,21,23,25,27,29,-1,-1,-1,-1,-1,-1,-1,-1,-1,-1,-1,-1,-1,-1,-1,-1],"loss_changes":[2.6852778E3,7.4536774E2,5.494553E2,1.0510929E3,1.3258793E3,5.0512027E2,4.2605176E2,1.7340135E3,6.033091E2,3.5978918E2,3.1051135E2,1.7052551E1,5.8817645E2,1.0031885E2,2.5028534E2,0E0,0E0,0E0,0E0,0E0,0E0,0E0,0E0,0E0,0E0,0E0,0E0,0E0,0E0,0E0,0E0],"parents":[2147483647,0,0,1,1,2,2,3,3,4,4,5,5,6,6,7,7,8,8,9,9,10,10,11,11,12,12,13,13,14,14],"right_children":[2,4,6,8,10,12,14,16,18,20,22,24,26,28,30,-1,-1,-1,-1,-1,-1,-1,-1,-1,-1,-1,-1,-1,-1,-1,-1],"split_conditions":[1.628631E1,1.87364E-6,3.2856458E-1,6E0,6.2712398E0,4.3258057E0,9.2947686E-1,5E0,-6.0575473E-1,9.332347E-1,5.19717E1,3.2969105E-1,5.604478E0,-1.173694E2,5E0,1.4043578E-2,-1.3524129E-2,-2.0202443E-2,8.491998E-3,1.3250346E-2,-8.700947E-3,3.980588E-3,1.589933E-2,-1.8093823E-2,7.7168103E-3,3.8254468E-3,-6.0189203E-3,1.0620602E-2,-1.3608153E-2,6.1035077E-3,-1.8327601E-2],"split_indices":[30,31,44,49,41,35,11,49,34,10,24,43,33,21,49,0,0,0,0,0,0,0,0,0,0,0,0,0,0,0,0],"split_type":[0,0,0,0,0,0,0,0,0,0,0,0,0,0,0,0,0,0,0,0,0,0,0,0,0,0,0,0,0,0,0],"sum_hessian":[1.2212124E4,7.8164624E3,4.395662E3,5.10319E3,2.7132725E3,2.8314148E3,1.5642473E3,9.8490955E2,4.1182803E3,1.4057924E3,1.3074801E3,2.2939711E2,2.6020178E3,1.3144768E3,2.4977051E2,3.5716925E2,6.277403E2,7.370476E1,4.0445757E3,7.8243095E1,1.3275492E3,1.0306531E3,2.7682693E2,2.2732147E2,2.0756292E0,9.624193E2,1.6395984E3,1.6625982E1,1.2978508E3,1.9761346E2,5.215704E1],"tree_param":{"num_deleted":"0","num_feature":"52","num_nodes":"31","size_leaf_vector":"1"}},{"base_weights":[-2.8641054E-3,3.5246545E-1,-6.458116E-1,2.5852662E-1,1.4317194E0,-3.734385E-1,-1.1334709E0,3.4619132E-1,-1.3091917E0,9.720993E-1,1.6110176E0,-2.4030453E-1,-1.7096422E0,-1.417658E0,-3.2379186E-1,-1.930496E-2,3.8530296E-3,-1.4537433E-2,2.7471273E-3,1.7518906E-2,5.8783283E-3,1.6232137E-2,-1.4615708E-3,-3.8822393E-3,1.3299186E-2,-1.0368348E-2,-1.7322244E-2,-6.517276E-3,-1.5106302E-2,-7.246916E-3,1.335004E-2],"categories":[],"categories_nodes":[],"categories_segments":[],"categories_sizes":[],"default_left":[0,0,0,0,0,0,0,0,0,0,0,0,0,0,0,0,0,0,0,0,0,0,0,0,0,0,0,0,0,0,0],"id":21,"left_children":[1,3,5,7,9,11,13,15,17,19,21,23,25,27,29,-1,-1,-1,-1,-1,-1,-1,-1,-1,-1,-1,-1,-1,-1,-1,-1],"loss_changes":[2.7933918E3,7.9802625E2,5.776538E2,9.9624817E2,5.0379517E1,4.966196E2,3.5831226E2,6.1183527E2,8.829999E1,5.273053E1,9.922485E0,5.9093195E2,2.0477295E0,8.117944E1,2.712118E2,0E0,0E0,0E0,0E0,0E0,0E0,0E0,0E0,0E0,0E0,0E0,0E0,0E0,0E0,0E0,0E0],"parents":[2147483647,0,0,1,1,2,2,3,3,4,4,5,5,6,6,7,7,8,8,9,9,10,10,11,11,12,12,13,13,14,14],"right_children":[2,4,6,8,10,12,14,16,18,20,22,24,26,28,30,-1,-1,-1,-1,-1,-1,-1,-1,-1,-1,-1,-1,-1,-1,-1,-1],"split_conditions":[1.628081E1,3.6223705E0,3.285093E-1,2.6693356E0,3.744476E0,6.009425E1,5.6270117E-1,-1.8753146E-1,4.481355E0,-4.7776127E0,1.156386E1,1.006164E1,6.033366E1,3.285805E-1,6.3525796E0,-1.930496E-2,3.8530296E-3,-1.4537433E-2,2.7471273E-3,1.7518906E-2,5.8783283E-3,1.6232137E-2,-1.4615708E-3,-3.8822393E-3,1.3299186E-2,-1.0368348E-2,-1.7322244E-2,-6.517276E-3,-1.5106302E-2,-7.246916E-3,1.335004E-2],"split_indices":[25,43,47,47,11,4,47,42,14,15,25,6,4,11,35,0,0,0,0,0,0,0,0,0,0,0,0,0,0,0,0],"split_type":[0,0,0,0,0,0,0,0,0,0,0,0,0,0,0,0,0,0,0,0,0,0,0,0,0,0,0,0,0,0,0],"sum_hessian":[1.2225147E4,7.873985E3,4.3511626E3,7.2446465E3,6.293384E2,2.7929678E3,1.5581948E3,6.861727E3,3.8291934E2,1.784119E2,4.5092648E2,2.540975E3,2.5199275E2,1.1528191E3,4.053758E2,1.1507133E2,6.746656E3,3.5097092E2,3.1948421E1,5.7720566E1,1.2069132E2,4.4789395E2,3.032512E0,2.3229038E3,2.1807126E2,9.706777E0,2.4228598E2,1.2565434E2,1.0271647E3,3.2692685E2,7.844895E1],"tree_param":{"num_deleted":"0","num_feature":"52","num_nodes":"31","size_leaf_vector":"1"}},{"base_weights":[-2.0255052E-2,3.4059197E-1,-6.4642024E-1,2.4823146E-1,1.403857E0,-3.749098E-1,-1.1461087E0,3.3468157E-1,-1.3553026E0,-1.7959584E-2,1.4608506E0,-1.803261E-2,-2.5336564E-1,-1.3553027E0,-9.491156E-2,-1.9091712E-2,3.7340652E-3,-1.4465666E-2,1.0071986E-2,1.490974E-2,-1.1581376E-2,-1.2512425E-3,-1.7046329E-2,-8.6261965E-3,-1.4816157E-2,-1.7931104E-2,2.3074183E-3],"categories":[],"categories_nodes":[],"categories_segments":[],"categories_sizes":[],"default_left":[0,0,0,0,0,0,0,0,0,0,0,0,0,0,0,0,0,0,0,0,0,0,0,0,0,0,0],"id":22,"left_children":[1,3,5,7,9,11,13,15,17,-1,19,-1,21,23,25,-1,-1,-1,-1,-1,-1,-1,-1,-1,-1,-1,-1],"loss_changes":[2.7485469E3,7.575087E2,6.029303E2,9.8492285E2,1.1506555E2,5.0005774E2,3.4406982E2,5.862991E2,7.9826965E1,0E0,4.95614E1,0E0,4.9449115E2,7.9957275E1,1.4467761E2,0E0,0E0,0E0,0E0,0E0,0E0,0E0,0E0,0E0,0E0,0E0,0E0],"parents":[2147483647,0,0,1,1,2,2,3,3,4,4,5,5,6,6,7,7,8,8,10,10,12,12,13,13,14,14],"right_children":[2,4,6,8,10,12,14,16,18,-1,20,-1,22,24,26,-1,-1,-1,-1,-1,-1,-1,-1,-1,-1,-1,-1],"split_conditions":[1.613617E1,3.6223705E0,3.285805E-1,2.6723063E0,3.314122E1,4.295409E0,8.7253255E-1,-1.8761292E-1,1.257347E1,-1.7959584E-2,1.127122E1,-1.803261E-2,6.009425E1,3.369277E-1,4.1436753E0,-1.9091712E-2,3.7340652E-3,-1.4465666E-2,1.0071986E-2,1.490974E-2,-1.1581376E-2,-1.2512425E-3,-1.7046329E-2,-8.6261965E-3,-1.4816157E-2,-1.7931104E-2,2.3074183E-3],"split_indices":[29,11,11,48,1,36,11,38,29,0,8,0,4,48,42,0,0,0,0,0,0,0,0,0,0,0,0],"split_type":[0,0,0,0,0,0,0,0,0,0,0,0,0,0,0,0,0,0,0,0,0,0,0,0,0,0,0],"sum_hessian":[1.21624375E4,7.716197E3,4.4462407E3,7.100634E3,6.1556305E2,2.882019E3,1.5642216E3,6.738156E3,3.6247784E2,1.0238302E1,6.0532477E2,2.249254E2,2.6570935E3,1.304358E3,2.5986353E2,1.1349641E2,6.624659E3,3.4936932E2,1.3108536E1,5.988673E2,6.457408E0,2.4423604E3,2.1473322E2,2.677664E2,1.0365917E3,4.1088963E1,2.1877457E2],"tree_param":{"num_deleted":"0","num_feature":"52","num_nodes":"27","size_leaf_vector":"1"}},{"base_weights":[6.11568E-3,3.5111225E-1,-5.9842366E-1,2.578237E-1,1.4424585E0,-3.1890932E-1,-1.1077297E0,3.4483698E-1,-1.2786973E0,-1.7504174E-2,1.4872177E0,-1.8701996E-1,-1.6863083E0,-1.3321522E0,8.148045E-2,-1.896814E-2,3.8402108E-3,-1.5776241E-2,-1.7345196E-3,1.5082421E-2,-1.5133004E-2,-1.5301977E-2,-2.5894048E-4,-1.1622322E-2,-1.7112529E-2,-1.4566722E-2,-8.038864E-3,5.8018654E-3,-1.8068168E-2],"categories":[],"categories_nodes":[],"categories_segments":[],"categories_sizes":[],"default_left":[0,0,0,0,0,0,0,0,0,0,0,0,0,0,0,0,0,0,0,0,0,0,0,0,0,0,0,0,0],"id":23,"left_children":[1,3,5,7,9,11,13,15,17,-1,19,21,23,25,27,-1,-1,-1,-1,-1,-1,-1,-1,-1,-1,-1,-1,-1,-1],"loss_changes":[2.5685098E3,7.9789014E2,6.36631E2,9.663355E2,9.08114E1,5.209542E2,4.231532E2,6.013638E2,1.2772101E2,0E0,4.07157E1,5.707179E2,1.3334961E0,8.654785E1,2.3891255E2,0E0,0E0,0E0,0E0,0E0,0E0,0E0,0E0,0E0,0E0,0E0,0E0,0E0,0E0],"parents":[2147483647,0,0,1,1,2,2,3,3,4,4,5,5,6,6,7,7,8,8,10,10,11,11,12,12,13,13,14,14],"right_children":[2,4,6,8,10,12,14,16,18,-1,20,22,24,26,28,-1,-1,-1,-1,-1,-1,-1,-1,-1,-1,-1,-1,-1,-1],"split_conditions":[1.621127E1,3.6226146E0,3.284903E-1,2.6723063E0,3.314122E1,6.009425E1,8.9930886E-1,-1.8753146E-1,3.4847643E0,-1.7504174E-2,1.87364E-6,2.0097877E-1,2.0639469E-1,4.397781E-1,5E0,-1.896814E-2,3.8402108E-3,-1.5776241E-2,-1.7345196E-3,1.5082421E-2,-1.5133004E-2,-1.5301977E-2,-2.5894048E-4,-1.1622322E-2,-1.7112529E-2,-1.4566722E-2,-8.038864E-3,5.8018654E-3,-1.8068168E-2],"split_indices":[28,44,48,48,1,4,11,42,44,0,12,43,45,48,49,0,0,0,0,0,0,0,0,0,0,0,0,0,0],"split_type":[0,0,0,0,0,0,0,0,0,0,0,0,0,0,0,0,0,0,0,0,0,0,0,0,0,0,0,0,0],"sum_hessian":[1.2313204E4,7.839693E3,4.4735117E3,7.2234653E3,6.1622736E2,2.8893962E3,1.5841154E3,6.837058E3,3.864074E2,7.992301E0,6.082351E2,2.6362585E3,2.5313757E2,1.3325265E3,2.5158882E2,1.166443E2,6.7204136E3,3.0381073E2,8.259669E1,6.0449677E2,3.7383404E0,2.8145944E2,2.354799E3,1.3663613E1,2.3947395E2,1.0769226E3,2.5560388E2,1.995735E2,5.2015327E1],"tree_param":{"num_deleted":"0","num_feature":"52","num_nodes":"29","size_leaf_vector":"1"}},{"base_weights":[1.6126946E-2,3.6579677E-1,-5.88165E-1,2.7489328E-1,1.4125556E0,-3.0070585E-1,-1.1217768E0,3.5785785E-1,-1.2283319E0,-1.7626204E-2,1.467023E0,-1.7168306E-1,-1.6728714E0,-1.3247864E0,-8.756825E-3,-1.8832158E-2,3.976284E-3,1.8753916E-2,-1.3556231E-2,1.4849425E-2,-1.4617853E-2,-1.4627968E-2,-8.3461775E-5,-9.9911485E-3,-1.695514E-2,-1.4387016E-2,-4.595728E-3,4.796648E-3,-1.7921746E-2],"categories":[],"categories_nodes":[],"categories_segments":[],"categories_sizes":[],"default_left":[0,0,0,0,0,0,0,0,0,0,0,0,0,0,0,0,0,0,0,0,0,0,0,0,0,0,0,0,0],"id":24,"left_children":[1,3,5,7,9,11,13,15,17,-1,19,21,23,25,27,-1,-1,-1,-1,-1,-1,-1,-1,-1,-1,-1,-1,-1,-1],"loss_changes":[2.6070618E3,7.432943E2,6.933696E2,8.974253E2,1.10546265E2,5.2030066E2,3.576637E2,6.08331E2,1.51255E2,0E0,3.440918E1,5.6703754E2,2.15979E0,1.3128906E2,2.1443686E2,0E0,0E0,0E0,0E0,0E0,0E0,0E0,0E0,0E0,0E0,0E0,0E0,0E0,0E0],"parents":[2147483647,0,0,1,1,2,2,3,3,4,4,5,5,6,6,7,7,8,8,10,10,11,11,12,12,13,13,14,14],"right_children":[2,4,6,8,10,12,14,16,18,-1,20,22,24,26,28,-1,-1,-1,-1,-1,-1,-1,-1,-1,-1,-1,-1,-1,-1],"split_conditions":[1.61394E1,3.6223705E0,3.284903E-1,2.6680286E0,3.314122E1,6.009425E1,8.9930886E-1,-1.8754676E-1,-1.176962E2,-1.7626204E-2,1.87364E-6,2.0097877E-1,6.033366E1,1.2E1,5E0,-1.8832158E-2,3.976284E-3,1.8753916E-2,-1.3556231E-2,1.4849425E-2,-1.4617853E-2,-1.4627968E-2,-8.3461775E-5,-9.9911485E-3,-1.695514E-2,-1.4387016E-2,-4.595728E-3,4.796648E-3,-1.7921746E-2],"split_indices":[26,43,48,11,1,4,11,41,20,0,12,43,4,49,49,0,0,0,0,0,0,0,0,0,0,0,0,0,0],"split_type":[0,0,0,0,0,0,0,0,0,0,0,0,0,0,0,0,0,0,0,0,0,0,0,0,0,0,0,0,0],"sum_hessian":[1.2336026E4,7.814569E3,4.5214575E3,7.1913174E3,6.232516E2,2.9394993E3,1.5819583E3,6.8159023E3,3.754148E2,9.9821415E0,6.132694E2,2.6878862E3,2.5161304E2,1.3377659E3,2.4419235E2,1.18039154E2,6.6978633E3,1.4249054E1,3.6116574E2,6.1003E2,3.2394E0,3.0096002E2,2.3869263E3,9.648088E0,2.4196494E2,1.1815398E3,1.5622609E2,1.9226743E2,5.1924915E1],"tree_param":{"num_deleted":"0","num_feature":"52","num_nodes":"29","size_leaf_vector":"1"}},{"base_weights":[5.306565E-3,5.2324384E-1,-3.7999153E-1,5.7550293E-1,-1.788512E-2,-5.7520255E-2,-1.0123584E0,-1.8615695E-2,6.268208E-1,4.8196524E-2,-1.6238918E0,-1.3322217E0,-3.668306E-1,-2.3041642E-3,7.667246E-3,-7.500583E-3,2.4317466E-3,8.073816E-3,-1.6818829E-2,1.4881953E-2,-1.3680266E-2,-9.835691E-3,4.08684E-3],"categories":[],"categories_nodes":[],"categories_segments":[],"categories_sizes":[],"default_left":[0,0,0,0,0,0,0,0,0,0,0,0,0,0,0,0,0,0,0,0,0,0,0],"id":25,"left_children":[1,3,5,7,-1,9,11,-1,13,15,17,19,21,-1,-1,-1,-1,-1,-1,-1,-1,-1,-1],"loss_changes":[2.4343083E3,6.296681E2,1.4263325E3,6.376554E2,0E0,7.6736163E2,4.872732E2,0E0,5.98036E2,6.759187E2,4.266632E1,1.6150977E2,3.754145E2,0E0,0E0,0E0,0E0,0E0,0E0,0E0,0E0,0E0,0E0],"parents":[2147483647,0,0,1,1,2,2,3,3,5,5,6,6,8,8,9,9,10,10,11,11,12,12],"right_children":[2,4,6,8,-1,10,12,-1,14,16,18,20,22,-1,-1,-1,-1,-1,-1,-1,-1,-1,-1],"split_conditions":[1.87364E-6,5.6259265E0,3.260483E-1,-1.8754676E-1,-1.788512E-2,6.009425E1,6.0552293E-1,-1.8615695E-2,-7.91274E0,6.2136674E0,4.6125114E-2,4.196469E1,2.5919006E0,-2.3041642E-3,7.667246E-3,-7.500583E-3,2.4317466E-3,8.073816E-3,-1.6818829E-2,1.4881953E-2,-1.3680266E-2,-9.835691E-3,4.08684E-3],"split_indices":[12,42,48,37,0,4,45,0,27,39,48,4,36,0,0,0,0,0,0,0,0,0,0],"split_type":[0,0,0,0,0,0,0,0,0,0,0,0,0,0,0,0,0,0,0,0,0,0,0],"sum_hessian":[1.2196367E4,5.202519E3,6.993848E3,5.088246E3,1.1427287E2,4.632584E3,2.3612642E3,1.0420704E2,4.984039E3,4.3405996E3,2.9198438E2,1.5781945E3,7.8306976E2,6.991944E2,4.2848447E3,8.5152936E2,3.4890703E3,6.5011487E0,2.8548325E2,1.9275297E1,1.5589192E3,4.3603705E2,3.4703268E2],"tree_param":{"num_deleted":"0","num_feature":"52","num_nodes":"23","size_leaf_vector":"1"}},{"base_weights":[1.8818503E-2,3.7080368E-1,-5.910015E-1,2.8298816E-1,1.3980074E0,-3.0747882E-1,-1.1198055E0,3.6834E-1,-1.2964483E0,4.758602E-1,1.4834049E0,-1.796373E-1,-1.6500145E0,-1.3039268E0,-6.1094925E-2,4.2720195E-3,-1.2874979E-2,-1.4161002E-2,1.0747492E-2,1.46341E-2,-1.9461043E-2,-1.6440842E-2,1.5058488E-2,-4.2826957E-3,6.8336534E-3,-1.0428605E-2,-1.6721696E-2,-5.645609E-3,-1.390687E-2,4.438416E-3,-1.7874122E-2],"categories":[],"categories_nodes":[],"categories_segments":[],"categories_sizes":[],"default_left":[0,0,0,0,0,0,0,0,0,0,0,0,0,0,0,0,0,0,0,0,0,0,0,0,0,0,0,0,0,0,0],"id":26,"left_children":[1,3,5,7,9,11,13,15,17,19,21,23,25,27,29,-1,-1,-1,-1,-1,-1,-1,-1,-1,-1,-1,-1,-1,-1,-1,-1],"loss_changes":[2.6295278E3,7.0024023E2,6.718158E2,9.652608E2,4.7446533E1,5.0084113E2,3.0486658E2,6.624008E2,1.05685974E2,1.303292E2,4.1725464E1,5.725727E2,1.6694336E0,8.4696045E1,2.0372652E2,0E0,0E0,0E0,0E0,0E0,0E0,0E0,0E0,0E0,0E0,0E0,0E0,0E0,0E0,0E0,0E0],"parents":[2147483647,0,0,1,1,2,2,3,3,4,4,5,5,6,6,7,7,8,8,9,9,10,10,11,11,12,12,13,13,14,14],"right_children":[2,4,6,8,10,12,14,16,18,20,22,24,26,28,30,-1,-1,-1,-1,-1,-1,-1,-1,-1,-1,-1,-1,-1,-1,-1,-1],"split_conditions":[1.61394E1,3.6223705E0,3.284903E-1,2.6723063E0,1.664637E0,6.009425E1,8.997078E-1,3.795108E0,1.256549E1,-1.334688E-1,-7.723E-1,7.535385E0,6.033366E1,3.2853934E-1,5E0,4.2720195E-3,-1.2874979E-2,-1.4161002E-2,1.0747492E-2,1.46341E-2,-1.9461043E-2,-1.6440842E-2,1.5058488E-2,-4.2826957E-3,6.8336534E-3,-1.0428605E-2,-1.6721696E-2,-5.645609E-3,-1.390687E-2,4.438416E-3,-1.7874122E-2],"split_indices":[27,45,48,48,3,4,44,15,27,3,27,36,4,43,49,0,0,0,0,0,0,0,0,0,0,0,0,0,0,0,0],"split_type":[0,0,0,0,0,0,0,0,0,0,0,0,0,0,0,0,0,0,0,0,0,0,0,0,0,0,0,0,0,0,0],"sum_hessian":[1.2248419E4,7.7661987E3,4.4822207E3,7.1557314E3,6.1046716E2,2.9188406E3,1.5633799E3,6.789593E3,3.6613885E2,5.2299057E1,5.5816815E2,2.6660981E3,2.5274252E2,1.3315731E3,2.318068E2,6.5572373E3,2.3235558E2,3.4893423E2,1.7204618E1,3.7432022E1,1.4867035E1,3.4622328E0,5.547059E2,2.0701802E3,5.95918E2,1.0590324E1,2.4215219E2,1.4063089E2,1.1909423E3,1.7992331E2,5.188349E1],"tree_param":{"num_deleted":"0","num_feature":"52","num_nodes":"31","size_leaf_vector":"1"}},{"base_weights":[-1.2424552E-2,3.294552E-1,-6.0158753E-1,2.42459E-1,1.359666E0,-3.534365E-1,-1.0624564E0,3.2479474E-1,-1.2224537E0,-1.7385768E-2,1.4098362E0,-1.7140119E0,-2.3664634E-1,-1.3688184E0,-2.113321E-1,3.831411E-3,-1.1976826E-2,-1.3947919E-2,4.2521567E-3,1.43072605E-2,-1.4755315E-2,-1.766224E-2,1.3439201E-2,3.812906E-3,-5.4209232E-3,-1.3974689E-2,4.430265E-3,-1.7168105E-2,2.0005417E-3],"categories":[],"categories_nodes":[],"categories_segments":[],"categories_sizes":[],"default_left":[0,0,0,0,0,0,0,0,0,0,0,0,0,0,0,0,0,0,0,0,0,0,0,0,0,0,0,0,0],"id":27,"left_children":[1,3,5,7,9,11,13,15,17,-1,19,21,23,25,27,-1,-1,-1,-1,-1,-1,-1,-1,-1,-1,-1,-1,-1,-1],"loss_changes":[2.4464763E3,6.885221E2,5.096931E2,8.553979E2,9.544824E1,4.6049512E2,4.0660547E2,5.967162E2,1.07766846E2,0E0,3.7631348E1,3.8957703E1,5.0461288E2,6.0173584E1,2.5687408E2,0E0,0E0,0E0,0E0,0E0,0E0,0E0,0E0,0E0,0E0,0E0,0E0,0E0,0E0],"parents":[2147483647,0,0,1,1,2,2,3,3,4,4,5,5,6,6,7,7,8,8,10,10,11,11,12,12,13,13,14,14],"right_children":[2,4,6,8,10,12,14,16,18,-1,20,22,24,26,28,-1,-1,-1,-1,-1,-1,-1,-1,-1,-1,-1,-1,-1,-1],"split_conditions":[1.621335E1,3.6223705E0,3.2855672E-1,2.6723063E0,3.314122E1,4.2979603E0,5.628739E-1,3.795108E0,4.481355E0,-1.7385768E-2,1.87364E-6,3.666183E0,5.4869576E0,6.9234986E0,1E0,3.831411E-3,-1.1976826E-2,-1.3947919E-2,4.2521567E-3,1.43072605E-2,-1.4755315E-2,-1.766224E-2,1.3439201E-2,3.812906E-3,-5.4209232E-3,-1.3974689E-2,4.430265E-3,-1.7168105E-2,2.0005417E-3],"split_indices":[29,45,45,48,1,31,45,17,14,0,12,18,34,42,51,0,0,0,0,0,0,0,0,0,0,0,0,0,0],"split_type":[0,0,0,0,0,0,0,0,0,0,0,0,0,0,0,0,0,0,0,0,0,0,0,0,0,0,0,0,0],"sum_hessian":[1.2143985E4,7.6849814E3,4.4590034E3,7.087696E3,5.972855E2,2.899538E3,1.5594655E3,6.711266E3,3.7642996E2,8.981526E0,5.88304E2,2.28136E2,2.671402E3,1.1462609E3,4.132046E2,6.4642817E3,2.4698424E2,3.4092438E2,3.5505577E1,5.8457587E2,3.7281406E0,2.2472145E2,3.414549E0,8.835914E2,1.7878105E3,1.1286425E3,1.761841E1,8.799853E1,3.252061E2],"tree_param":{"num_deleted":"0","num_feature":"52","num_nodes":"29","size_leaf_vector":"1"}},{"base_weights":[-5.956249E-3,5.1422846E-1,-4.0057737E-1,-4.565514E-1,7.7051544E-1,-9.27647E-2,-1.0245036E0,8.044403E-1,-1.3525808E0,-1.9384804E0,8.1997275E-1,8.543423E-3,-1.6588655E0,-1.3563893E0,-3.7350613E-1,1.4737613E-2,-1.6036794E-2,-1.5858397E-2,1.1827802E-2,1.1272664E-2,-2.020024E-2,-1.7305963E-2,8.742108E-3,-7.826357E-3,2.0377142E-3,7.014546E-3,-1.6991492E-2,-9.269101E-3,-1.49703575E-2,-1.1173634E-2,1.7088217E-3],"categories":[],"categories_nodes":[],"categories_segments":[],"categories_sizes":[],"default_left":[0,0,0,0,0,0,0,0,0,0,0,0,0,0,0,0,0,0,0,0,0,0,0,0,0,0,0,0,0,0,0],"id":28,"left_children":[1,3,5,7,9,11,13,15,17,19,21,23,25,27,29,-1,-1,-1,-1,-1,-1,-1,-1,-1,-1,-1,-1,-1,-1,-1,-1],"loss_changes":[2.4896323E3,1.3020087E3,1.3243843E3,1.2364423E3,5.561892E2,7.328925E2,4.9172192E2,7.354186E2,3.8009717E2,2.0905212E1,5.639829E2,6.7044824E2,2.7877563E1,8.9737305E1,3.122683E2,0E0,0E0,0E0,0E0,0E0,0E0,0E0,0E0,0E0,0E0,0E0,0E0,0E0,0E0,0E0,0E0],"parents":[2147483647,0,0,1,1,2,2,3,3,4,4,5,5,6,6,7,7,8,8,9,9,10,10,11,11,12,12,13,13,14,14],"right_children":[2,4,6,8,10,12,14,16,18,20,22,24,26,28,30,-1,-1,-1,-1,-1,-1,-1,-1,-1,-1,-1,-1,-1,-1,-1,-1],"split_conditions":[1.87364E-6,6E0,3.284903E-1,5E0,-6.0575473E-1,6.009425E1,6.050802E-1,3.029292E0,3.547122E0,2.0287782E-1,-1.8024719E-1,6.213831E0,4.6125114E-2,3.395031E-1,1E0,1.4737613E-2,-1.6036794E-2,-1.5858397E-2,1.1827802E-2,1.1272664E-2,-2.020024E-2,-1.7305963E-2,8.742108E-3,-7.826357E-3,2.0377142E-3,7.014546E-3,-1.6991492E-2,-9.269101E-3,-1.49703575E-2,-1.1173634E-2,1.7088217E-3],"split_indices":[32,49,48,49,31,4,46,3,48,11,41,41,48,11,51,0,0,0,0,0,0,0,0,0,0,0,0,0,0,0,0],"split_type":[0,0,0,0,0,0,0,0,0,0,0,0,0,0,0,0,0,0,0,0,0,0,0,0,0,0,0,0,0,0,0],"sum_hessian":[1.2126225E4,5.2307764E3,6.895448E3,1.0923445E3,4.1384316E3,4.618212E3,2.2772363E3,4.538038E2,6.385407E2,7.3514656E1,4.064917E3,4.3385537E3,2.7965836E2,1.5075745E3,7.6966174E2,3.554084E2,9.8395424E1,5.85086E2,5.3454723E1,1.5724429E0,7.1942215E1,8.39973E1,3.98092E3,8.5808356E2,3.48047E3,4.417438E0,2.752409E2,3.7378177E2,1.1337927E3,3.2479977E2,4.4486197E2],"tree_param":{"num_deleted":"0","num_feature":"52","num_nodes":"31","size_leaf_vector":"1"}},{"base_weights":[4.6285708E-3,3.398324E-1,-5.7348794E-1,2.5561094E-1,1.3603703E0,-3.1242988E-1,-1.0662951E0,3.3647656E-1,-1.2219353E0,-1.7326942E-2,1.4151022E0,-1.6673479E0,-1.9250625E-1,-1.3531419E0,-3.8014972E-1,-1.8526776E-2,3.7414103E-3,-1.3851431E-2,4.4691307E-3,1.4346583E-2,-1.4278463E-2,-1.7175032E-2,1.5709555E-2,4.1328887E-3,-4.876899E-3,-1.38867535E-2,7.180298E-3,1.6985504E-3,-1.1560441E-2],"categories":[],"categories_nodes":[],"categories_segments":[],"categories_sizes":[],"default_left":[0,0,0,0,0,0,0,0,0,0,0,0,0,0,0,0,0,0,0,0,0,0,0,0,0,0,0,0,0],"id":29,"left_children":[1,3,5,7,9,11,13,15,17,-1,19,21,23,25,27,-1,-1,-1,-1,-1,-1,-1,-1,-1,-1,-1,-1,-1,-1],"loss_changes":[2.371958E3,6.6557886E2,5.776073E2,8.5570557E2,1.02403564E2,4.7707507E2,3.0558484E2,5.603579E2,1.0184747E2,0E0,3.4333496E1,4.1479126E1,4.8306998E2,8.1684204E1,1.9645163E2,0E0,0E0,0E0,0E0,0E0,0E0,0E0,0E0,0E0,0E0,0E0,0E0,0E0,0E0],"parents":[2147483647,0,0,1,1,2,2,3,3,4,4,5,5,6,6,7,7,8,8,10,10,11,11,12,12,13,13,14,14],"right_children":[2,4,6,8,10,12,14,16,18,-1,20,22,24,26,28,-1,-1,-1,-1,-1,-1,-1,-1,-1,-1,-1,-1,-1,-1],"split_conditions":[1.61394E1,3.6223705E0,3.2856458E-1,2.6712854E0,3.314122E1,2.983909E0,4.5583165E-1,-1.8753146E-1,4.482578E0,-1.7326942E-2,1.87364E-6,7.8716383E0,5.468128E0,6.9234986E0,5E0,-1.8526776E-2,3.7414103E-3,-1.3851431E-2,4.4691307E-3,1.4346583E-2,-1.4278463E-2,-1.7175032E-2,1.5709555E-2,4.1328887E-3,-4.876899E-3,-1.38867535E-2,7.180298E-3,1.6985504E-3,-1.1560441E-2],"split_indices":[26,45,44,45,1,6,44,42,17,0,31,32,32,42,49,0,0,0,0,0,0,0,0,0,0,0,0,0,0],"split_type":[0,0,0,0,0,0,0,0,0,0,0,0,0,0,0,0,0,0,0,0,0,0,0,0,0,0,0,0,0],"sum_hessian":[1.2238028E4,7.7467285E3,4.4913003E3,7.1573105E3,5.8941766E2,2.9370637E3,1.5542365E3,6.786652E3,3.70659E2,9.715374E0,5.797023E2,2.3777187E2,2.6992917E3,1.0953483E3,4.5888812E2,1.1397459E2,6.6726772E3,3.3779388E2,3.2865135E1,5.762339E2,3.468425E0,2.3460785E2,3.1640208E0,8.842258E2,1.8150659E3,1.0771971E3,1.8151115E1,2.6899088E2,1.8989725E2],"tree_param":{"num_deleted":"0","num_feature":"52","num_nodes":"29","size_leaf_vector":"1"}},{"base_weights":[-3.5853158E-3,3.293658E-1,-5.721003E-1,2.4019943E-1,1.3607844E0,-3.0960354E-1,-1.0114954E0,3.25267E-1,-1.2771842E0,-1.696561E-2,1.4056846E0,-1.6236076E0,-1.9767499E-1,-1.2519054E0,-2.4084859E-1,3.8392502E-3,-1.2790903E-2,-1.4424925E-2,3.8787725E-3,1.4232492E-2,-1.4000181E-2,-1.675486E-2,2.8754359E-3,4.4049127E-3,-5.2496158E-3,-5.897746E-3,-1.3595096E-2,-1.6841007E-2,1.9017998E-3],"categories":[],"categories_nodes":[],"categories_segments":[],"categories_sizes":[],"default_left":[0,0,0,0,0,0,0,0,0,0,0,0,0,0,0,0,0,0,0,0,0,0,0,0,0,0,0,0,0],"id":30,"left_children":[1,3,5,7,9,11,13,15,17,-1,19,21,23,25,27,-1,-1,-1,-1,-1,-1,-1,-1,-1,-1,-1,-1,-1,-1],"loss_changes":[2.2848384E3,6.997762E2,5.1389966E2,9.0500336E2,8.550781E1,4.103658E2,3.0852222E2,6.2506354E2,1.0301434E2,0E0,3.1428223E1,2.219989E1,5.379126E2,8.970349E1,2.4765364E2,0E0,0E0,0E0,0E0,0E0,0E0,0E0,0E0,0E0,0E0,0E0,0E0,0E0,0E0],"parents":[2147483647,0,0,1,1,2,2,3,3,4,4,5,5,6,6,7,7,8,8,10,10,11,11,12,12,13,13,14,14],"right_children":[2,4,6,8,10,12,14,16,18,-1,20,22,24,26,28,-1,-1,-1,-1,-1,-1,-1,-1,-1,-1,-1,-1,-1,-1],"split_conditions":[1.61394E1,3.6223705E0,3.233326E-1,2.6693356E0,3.314122E1,4.262992E0,5.6270117E-1,3.795123E0,4.481355E0,-1.696561E-2,1.87364E-6,3.358799E-1,5.468128E0,3.2853934E-1,1E0,3.8392502E-3,-1.2790903E-2,-1.4424925E-2,3.8787725E-3,1.4232492E-2,-1.4000181E-2,-1.675486E-2,2.8754359E-3,4.4049127E-3,-5.2496158E-3,-5.897746E-3,-1.3595096E-2,-1.6841007E-2,1.9017998E-3],"split_indices":[26,45,47,47,1,36,43,14,14,0,12,43,32,43,51,0,0,0,0,0,0,0,0,0,0,0,0,0,0],"split_type":[0,0,0,0,0,0,0,0,0,0,0,0,0,0,0,0,0,0,0,0,0,0,0,0,0,0,0,0,0],"sum_hessian":[1.2068722E4,7.6114766E3,4.4572446E3,7.0069565E3,6.0452E2,2.791371E3,1.6658739E3,6.63573E3,3.7122662E2,8.217074E0,5.96303E2,2.1804851E2,2.5733225E3,1.2692848E3,3.9658908E2,6.4024077E3,2.333222E2,3.378212E2,3.3405422E1,5.930828E2,3.2201614E0,2.1240602E2,5.6424727E0,8.72234E2,1.7010885E3,1.7834407E2,1.0909407E3,9.053508E1,3.0605402E2],"tree_param":{"num_deleted":"0","num_feature":"52","num_nodes":"29","size_leaf_vector":"1"}},{"base_weights":[4.6396544E-3,3.287685E-1,-5.646842E-1,2.4941829E-1,1.4244772E0,-2.9997173E-1,-1.0253698E0,3.793996E-1,-5.769219E-1,-1.4698298E-2,1.4467976E0,-1.737697E-2,-1.7634024E-1,-1.3171227E0,-3.3438364E-1,6.2515466E-3,-5.4170215E-4,-1.7089365E-2,-4.3567726E-3,5.9160134E-3,1.5025596E-2,4.3457467E-3,-4.7057513E-3,-1.3511872E-2,7.535433E-3,-1.6827317E-2,1.1027007E-4],"categories":[],"categories_nodes":[],"categories_segments":[],"categories_sizes":[],"default_left":[0,0,0,0,0,0,0,0,0,0,0,0,0,0,0,0,0,0,0,0,0,0,0,0,0,0,0],"id":31,"left_children":[1,3,5,7,9,11,13,15,17,-1,19,-1,21,23,25,-1,-1,-1,-1,-1,-1,-1,-1,-1,-1,-1,-1],"loss_changes":[2.236493E3,6.71106E2,5.358789E2,7.738361E2,3.580359E1,4.9627435E2,3.2293542E2,6.632345E2,1.5584515E2,0E0,2.3804321E1,0E0,4.6282123E2,8.054895E1,2.2243057E2,0E0,0E0,0E0,0E0,0E0,0E0,0E0,0E0,0E0,0E0,0E0,0E0],"parents":[2147483647,0,0,1,1,2,2,3,3,4,4,5,5,6,6,7,7,8,8,10,10,12,12,13,13,14,14],"right_children":[2,4,6,8,10,12,14,16,18,-1,20,-1,22,24,26,-1,-1,-1,-1,-1,-1,-1,-1,-1,-1,-1,-1],"split_conditions":[1.628081E1,3.700707E0,3.259788E-1,1.1393335E0,3.314122E1,4.295409E0,4.5583165E-1,1.7922914E-2,-9.723131E-2,-1.4698298E-2,1.664637E0,-1.737697E-2,5.467539E0,6.9234986E0,1E0,6.2515466E-3,-5.4170215E-4,-1.7089365E-2,-4.3567726E-3,5.9160134E-3,1.5025596E-2,4.3457467E-3,-4.7057513E-3,-1.3511872E-2,7.535433E-3,-1.6827317E-2,1.1027007E-4],"split_indices":[25,11,11,11,1,36,11,33,33,0,3,0,12,41,51,0,0,0,0,0,0,0,0,0,0,0,0],"split_type":[0,0,0,0,0,0,0,0,0,0,0,0,0,0,0,0,0,0,0,0,0,0,0,0,0,0,0],"sum_hessian":[1.2117654E4,7.7218525E3,4.3958013E3,7.201551E3,5.2030194E2,2.7927327E3,1.6030686E3,6.2231978E3,9.7835297E2,3.4854593E0,5.168165E2,2.2010065E2,2.572632E3,1.1265168E3,4.7655173E2,3.9715889E3,2.251609E3,1.0729899E2,8.71054E2,3.2346325E1,4.8447018E2,8.361244E2,1.7365077E3,1.1086263E3,1.7890585E1,9.639432E1,3.801574E2],"tree_param":{"num_deleted":"0","num_feature":"52","num_nodes":"27","size_leaf_vector":"1"}},{"base_weights":[1.5402287E-3,5.027189E-1,-3.7609825E-1,-1.8398732E-2,5.5379176E-1,-6.1161336E-2,-9.991484E-1,6.038655E-1,-1.7251581E-2,4.2096987E-2,-1.6018883E0,-1.3360748E0,-3.1890312E-1,-3.2057264E-3,7.412596E-3,-7.328755E-3,2.313746E-3,6.0882134E-4,-1.6570121E-2,-7.7141975E-3,-1.4932351E-2,-9.224564E-3,4.1756276E-3],"categories":[],"categories_nodes":[],"categories_segments":[],"categories_sizes":[],"default_left":[0,0,0,0,0,0,0,0,0,0,0,0,0,0,0,0,0,0,0,0,0,0,0],"id":32,"left_children":[1,3,5,-1,7,9,11,13,-1,15,17,19,21,-1,-1,-1,-1,-1,-1,-1,-1,-1,-1],"loss_changes":[2.2997554E3,6.257273E2,1.359672E3,0E0,5.842639E2,7.3252826E2,5.32813E2,6.3551013E2,0E0,6.332298E2,2.660852E1,1.3689673E2,3.4352423E2,0E0,0E0,0E0,0E0,0E0,0E0,0E0,0E0,0E0,0E0],"parents":[2147483647,0,0,1,1,2,2,4,4,5,5,6,6,7,7,9,9,10,10,11,11,12,12],"right_children":[2,4,6,-1,8,10,12,14,-1,16,18,20,22,-1,-1,-1,-1,-1,-1,-1,-1,-1,-1],"split_conditions":[1.87364E-6,-1.8753146E-1,3.2718536E-1,-1.8398732E-2,5.6254916E0,6.009425E1,6.0552293E-1,-9.26368E0,-1.7251581E-2,6.2136674E0,6.8954565E-2,3.3589974E-1,2.5972242E0,-3.2057264E-3,7.412596E-3,-7.328755E-3,2.313746E-3,6.0882134E-4,-1.6570121E-2,-7.7141975E-3,-1.4932351E-2,-9.224564E-3,4.1756276E-3],"split_indices":[12,42,48,0,38,4,45,28,0,39,48,11,35,0,0,0,0,0,0,0,0,0,0],"split_type":[0,0,0,0,0,0,0,0,0,0,0,0,0,0,0,0,0,0,0,0,0,0,0],"sum_hessian":[1.2149023E4,5.220442E3,6.928582E3,1.1063958E2,5.1098022E3,4.6029824E3,2.325599E3,5.000661E3,1.09140945E2,4.314782E3,2.8820065E2,1.5546266E3,7.709726E2,6.4688007E2,4.3537812E3,8.464069E2,3.468375E3,9.24442E0,2.789562E2,3.3977426E2,1.2148523E3,4.235828E2,3.4738983E2],"tree_param":{"num_deleted":"0","num_feature":"52","num_nodes":"23","size_leaf_vector":"1"}},{"base_weights":[1.1748418E-2,3.3538193E-1,-5.3485036E-1,2.5322902E-1,1.3215497E0,-2.895682E-1,-9.965308E-1,3.4003478E-1,-1.3402488E0,-1.7060705E-2,1.3765953E0,-1.4107788E0,-1.5136041E-1,-1.1938967E0,9.055845E-2,-1.8307062E-2,3.7649365E-3,-1.5943402E-2,-3.2601585E-3,1.3957509E-2,-1.4014239E-2,5.9506968E-3,-1.6686844E-2,-4.340877E-4,-1.4469736E-2,-1.3442766E-2,-7.5221616E-3,-1.7289873E-2,4.5033423E-3],"categories":[],"categories_nodes":[],"categories_segments":[],"categories_sizes":[],"default_left":[0,0,0,0,0,0,0,0,0,0,0,0,0,0,0,0,0,0,0,0,0,0,0,0,0,0,0,0,0],"id":33,"left_children":[1,3,5,7,9,11,13,15,17,-1,19,21,23,25,27,-1,-1,-1,-1,-1,-1,-1,-1,-1,-1,-1,-1,-1,-1],"loss_changes":[2.15346E3,6.191357E2,5.123854E2,9.769433E2,1.0030139E2,4.5814526E2,3.3702856E2,5.3059485E2,9.351898E1,0E0,3.2704224E1,1.6885266E2,3.6839886E2,8.726782E1,1.5934383E2,0E0,0E0,0E0,0E0,0E0,0E0,0E0,0E0,0E0,0E0,0E0,0E0,0E0,0E0],"parents":[2147483647,0,0,1,1,2,2,3,3,4,4,5,5,6,6,7,7,8,8,10,10,11,11,12,12,13,13,14,14],"right_children":[2,4,6,8,10,12,14,16,18,-1,20,22,24,26,28,-1,-1,-1,-1,-1,-1,-1,-1,-1,-1,-1,-1,-1,-1],"split_conditions":[1.613585E1,3.6223705E0,3.284903E-1,2.6712854E0,3.314122E1,2.0084672E-1,8.9930886E-1,-1.8761292E-1,3.4847643E0,-1.7060705E-2,1.87364E-6,1.311903E1,3.904557E2,3.40875E0,4.1444E0,-1.8307062E-2,3.7649365E-3,-1.5943402E-2,-3.2601585E-3,1.3957509E-2,-1.4014239E-2,5.9506968E-3,-1.6686844E-2,-4.340877E-4,-1.4469736E-2,-1.3442766E-2,-7.5221616E-3,-1.7289873E-2,4.5033423E-3],"split_indices":[25,45,48,45,1,45,11,38,48,0,32,26,5,17,41,0,0,0,0,0,0,0,0,0,0,0,0,0,0],"split_type":[0,0,0,0,0,0,0,0,0,0,0,0,0,0,0,0,0,0,0,0,0,0,0,0,0,0,0,0,0],"sum_hessian":[1.2171465E4,7.6452217E3,4.526243E3,7.058471E3,5.867506E2,2.9569163E3,1.5693268E3,6.694567E3,3.6390433E2,9.9417305E0,5.7680884E2,3.2347968E2,2.6334365E3,1.3281051E3,2.4122166E2,1.0976896E2,6.584798E3,2.9054367E2,7.3360664E1,5.733529E2,3.4559479E0,3.6704548E1,2.8677515E2,2.4318464E3,2.0159007E2,9.892495E2,3.388556E2,3.9194077E1,2.0202759E2],"tree_param":{"num_deleted":"0","num_feature":"52","num_nodes":"29","size_leaf_vector":"1"}},{"base_weights":[1.2403459E-3,3.2975549E-1,-5.735771E-1,2.5472102E-1,1.381389E0,-3.0798325E-1,-1.0283257E0,3.8169074E-1,-5.783574E-1,1.4051793E0,-4.3489528E-1,-1.9228427E-1,-1.6209453E-2,-1.3082936E0,-3.3162254E-1,6.131364E-3,-4.8065363E-4,-9.793434E-3,9.572344E-3,-1.2586246E-2,1.4181808E-2,1.2418936E-2,-1.8799441E-2,-4.4689816E-3,7.051066E-3,-9.182957E-3,-1.4744351E-2,-5.2213795E-3,2.0563861E-2],"categories":[],"categories_nodes":[],"categories_segments":[],"categories_sizes":[],"default_left":[0,0,0,0,0,0,0,0,0,0,0,0,0,0,0,0,0,0,0,0,0,0,0,0,0,0,0,0,0],"id":34,"left_children":[1,3,5,7,9,11,13,15,17,19,21,23,-1,25,27,-1,-1,-1,-1,-1,-1,-1,-1,-1,-1,-1,-1,-1,-1],"loss_changes":[2.2878176E3,6.0798395E2,5.318323E2,7.6150476E2,2.2786682E1,4.2243555E2,3.1635095E2,6.212798E2,5.872838E2,1.9337585E1,2.026246E1,5.849415E2,0E0,7.369104E1,2.1348727E2,0E0,0E0,0E0,0E0,0E0,0E0,0E0,0E0,0E0,0E0,0E0,0E0,0E0,0E0],"parents":[2147483647,0,0,1,1,2,2,3,3,4,4,5,5,6,6,7,7,8,8,9,9,10,10,11,11,13,13,14,14],"right_children":[2,4,6,8,10,12,14,16,18,20,22,24,-1,26,28,-1,-1,-1,-1,-1,-1,-1,-1,-1,-1,-1,-1,-1,-1],"split_conditions":[1.613585E1,3.700707E0,3.246327E-1,1.1910999E0,1.129286E1,6.009425E1,4.550747E-1,1.7451512E-2,9E0,3.314122E1,-4.781512E0,7.535655E0,-1.6209453E-2,3.395031E-1,9.520284E1,6.131364E-3,-4.8065363E-4,-9.793434E-3,9.572344E-3,-1.2586246E-2,1.4181808E-2,1.2418936E-2,-1.8799441E-2,-4.4689816E-3,7.051066E-3,-9.182957E-3,-1.4744351E-2,-5.2213795E-3,2.0563861E-2],"split_indices":[25,11,48,11,26,4,48,32,49,1,7,35,0,11,1,0,0,0,0,0,0,0,0,0,0,0,0,0,0],"split_type":[0,0,0,0,0,0,0,0,0,0,0,0,0,0,0,0,0,0,0,0,0,0,0,0,0,0,0,0,0],"sum_hessian":[1.2113352E4,7.708358E3,4.4049937E3,7.196152E3,5.1220605E2,2.7819094E3,1.6230842E3,6.244906E3,9.5124615E2,5.0580716E2,6.3988686E0,2.5576724E3,2.2423714E2,1.1571924E3,4.658918E2,4.0586748E3,2.186231E3,7.545692E2,1.9667693E2,1.9914405E0,5.0381573E2,3.02701E0,3.371859E0,1.9927716E3,5.6490076E2,3.476505E2,8.095419E2,4.3219284E2,3.3698997E1],"tree_param":{"num_deleted":"0","num_feature":"52","num_nodes":"29","size_leaf_vector":"1"}},{"base_weights":[5.2135973E-3,3.257958E-1,-5.3601044E-1,2.4482696E-1,1.3179252E0,-2.7361077E-1,-1.0380578E0,3.2684705E-1,-1.299123E0,-1.675094E-2,1.3680207E0,-1.4577497E0,-1.333792E-1,-1.3588626E0,-2.946453E-1,-1.8292869E-2,3.6311867E-3,-1.4140561E-2,6.06655E-3,1.387417E-2,-1.3954471E-2,3.9668806E-4,-1.608103E-2,-6.970808E-3,2.160339E-3,1.4789159E-2,-1.3738819E-2,2.7530624E-3,-1.127331E-2],"categories":[],"categories_nodes":[],"categories_segments":[],"categories_sizes":[],"default_left":[0,0,0,0,0,0,0,0,0,0,0,0,0,0,0,0,0,0,0,0,0,0,0,0,0,0,0,0,0],"id":35,"left_children":[1,3,5,7,9,11,13,15,17,-1,19,21,23,25,27,-1,-1,-1,-1,-1,-1,-1,-1,-1,-1,-1,-1,-1,-1],"loss_changes":[2.1104812E3,6.133237E2,5.957938E2,8.949437E2,8.867816E1,4.9347852E2,3.6992334E2,5.2529236E2,7.894977E1,0E0,3.2339966E1,7.091443E1,5.239345E2,4.825183E1,2.2306343E2,0E0,0E0,0E0,0E0,0E0,0E0,0E0,0E0,0E0,0E0,0E0,0E0,0E0,0E0],"parents":[2147483647,0,0,1,1,2,2,3,3,4,4,5,5,6,6,7,7,8,8,10,10,11,11,12,12,13,13,14,14],"right_children":[2,4,6,8,10,12,14,16,18,-1,20,22,24,26,28,-1,-1,-1,-1,-1,-1,-1,-1,-1,-1,-1,-1,-1,-1],"split_conditions":[1.605956E1,3.6223705E0,3.284903E-1,2.6693356E0,3.314122E1,2.0084672E-1,4.550747E-1,-1.8761292E-1,6.934292E0,-1.675094E-2,1.87364E-6,1.311903E1,3E0,-7.86607E1,5E0,-1.8292869E-2,3.6311867E-3,-1.4140561E-2,6.06655E-3,1.387417E-2,-1.3954471E-2,3.9668806E-4,-1.608103E-2,-6.970808E-3,2.160339E-3,1.4789159E-2,-1.3738819E-2,2.7530624E-3,-1.127331E-2],"split_indices":[30,43,48,47,1,45,48,40,0,0,31,29,49,22,49,0,0,0,0,0,0,0,0,0,0,0,0,0,0],"split_type":[0,0,0,0,0,0,0,0,0,0,0,0,0,0,0,0,0,0,0,0,0,0,0,0,0,0,0,0,0],"sum_hessian":[1.2161673E4,7.6379175E3,4.523755E3,7.0627637E3,5.7515375E2,2.9719717E3,1.5517834E3,6.7072397E3,3.5552402E2,8.934133E0,5.662196E2,3.1369373E2,2.6582778E3,1.083425E3,4.683584E2,1.1014825E2,6.5970913E3,3.3554602E2,1.9977999E1,5.627676E2,3.4520638E0,2.8690605E1,2.8500314E2,1.0168377E3,1.6414402E3,5.1908455E0,1.0782343E3,2.784417E2,1.8991669E2],"tree_param":{"num_deleted":"0","num_feature":"52","num_nodes":"29","size_leaf_vector":"1"}},{"base_weights":[1.1441356E-2,4.8329782E-1,-3.412142E-1,-4.7540164E-1,7.3110914E-1,-4.006006E-2,-9.6476746E-1,7.857677E-1,-1.4136245E0,-1.9312532E0,7.84038E-1,6.2297802E-2,-1.5846161E0,-1.3050914E0,-3.0313525E-1,1.3784973E-2,-1.6371926E-2,-1.6773516E-2,1.1261613E-2,1.1035116E-2,-2.0047288E-2,-1.6830979E-2,8.362635E-3,-7.2820466E-3,2.5592186E-3,-9.2582253E-4,-1.6369363E-2,-1.3520083E-2,-1.2203256E-3,-1.1077409E-2,2.6306477E-3],"categories":[],"categories_nodes":[],"categories_segments":[],"categories_sizes":[],"default_left":[0,0,0,0,0,0,0,0,0,0,0,0,0,0,0,0,0,0,0,0,0,0,0,0,0,0,0,0,0,0,0],"id":36,"left_children":[1,3,5,7,9,11,13,15,17,19,21,23,25,27,29,-1,-1,-1,-1,-1,-1,-1,-1,-1,-1,-1,-1,-1,-1,-1,-1],"loss_changes":[2.0336862E3,1.2422281E3,1.3133696E3,1.2722426E3,5.8688184E2,7.459076E2,5.124927E2,6.613188E2,4.147328E2,2.0332306E1,5.2630054E2,6.775042E2,2.2739014E1,8.330493E1,3.5334518E2,0E0,0E0,0E0,0E0,0E0,0E0,0E0,0E0,0E0,0E0,0E0,0E0,0E0,0E0,0E0,0E0],"parents":[2147483647,0,0,1,1,2,2,3,3,4,4,5,5,6,6,7,7,8,8,9,9,10,10,11,11,12,12,13,13,14,14],"right_children":[2,4,6,8,10,12,14,16,18,20,22,24,26,28,30,-1,-1,-1,-1,-1,-1,-1,-1,-1,-1,-1,-1,-1,-1,-1,-1],"split_conditions":[1.87364E-6,6E0,3.2856458E-1,5E0,-6.0575473E-1,6.009425E1,6.0693705E-1,4.2222915E0,3.547122E0,1.939493E-1,-1.8024719E-1,6.2136674E0,6.8954565E-2,6.0552293E-1,1E0,1.3784973E-2,-1.6371926E-2,-1.6773516E-2,1.1261613E-2,1.1035116E-2,-2.0047288E-2,-1.6830979E-2,8.362635E-3,-7.2820466E-3,2.5592186E-3,-9.2582253E-4,-1.6369363E-2,-1.3520083E-2,-1.2203256E-3,-1.1077409E-2,2.6306477E-3],"split_indices":[32,49,46,49,32,4,11,37,48,11,41,39,46,48,51,0,0,0,0,0,0,0,0,0,0,0,0,0,0,0,0],"split_type":[0,0,0,0,0,0,0,0,0,0,0,0,0,0,0,0,0,0,0,0,0,0,0,0,0,0,0,0,0,0,0],"sum_hessian":[1.2219475E4,5.226285E3,6.9931895E3,1.0732643E3,4.153021E3,4.7164E3,2.2767898E3,4.5790543E2,6.153589E2,8.0262665E1,4.0727583E3,4.4241694E3,2.922304E2,1.5028143E3,7.7397546E2,3.6825107E2,8.9654335E1,5.5777954E2,5.757933E1,1.565936E0,7.8696724E1,8.377954E1,3.9889788E3,8.698994E2,3.5542698E3,9.994123E0,2.822363E2,1.4453527E3,5.746168E1,3.1928915E2,4.546863E2],"tree_param":{"num_deleted":"0","num_feature":"52","num_nodes":"31","size_leaf_vector":"1"}},{"base_weights":[8.770691E-3,4.855763E-1,-3.4977868E-1,-1.7934768E-2,5.344035E-1,-6.399963E-2,-9.262884E-1,5.848825E-1,-1.6624303E0,-7.95331E-1,1.24482624E-1,-1.2319885E0,-2.9878688E-1,-2.9687558E-3,7.2233556E-3,8.184481E-3,-1.709201E-2,1.4090945E-2,-9.775887E-3,6.6866064E-3,-4.3932977E-3,-6.21791E-3,-1.4041919E-2,-8.827573E-3,4.244145E-3],"categories":[],"categories_nodes":[],"categories_segments":[],"categories_sizes":[],"default_left":[0,0,0,0,0,0,0,0,0,0,0,0,0,0,0,0,0,0,0,0,0,0,0,0,0],"id":37,"left_children":[1,3,5,-1,7,9,11,13,15,17,19,21,23,-1,-1,-1,-1,-1,-1,-1,-1,-1,-1,-1,-1],"loss_changes":[2.089162E3,5.846393E2,1.149126E3,0E0,5.705145E2,6.430704E2,4.4306384E2,6.087971E2,1.4814911E1,3.8545648E2,1.1384403E3,1.6242407E2,3.2073843E2,0E0,0E0,0E0,0E0,0E0,0E0,0E0,0E0,0E0,0E0,0E0,0E0],"parents":[2147483647,0,0,1,1,2,2,4,4,5,5,6,6,7,7,8,8,9,9,10,10,11,11,12,12],"right_children":[2,4,6,-1,8,10,12,14,16,18,20,22,24,-1,-1,-1,-1,-1,-1,-1,-1,-1,-1,-1,-1],"split_conditions":[1.87364E-6,-1.8754676E-1,3.272029E-1,-1.7934768E-2,5.625914E0,6.2136674E0,6.0693705E-1,-7.92003E0,8.62249E-1,1.24088E0,5.4470987E0,3.3589974E-1,2.5919006E0,-2.9687558E-3,7.2233556E-3,8.184481E-3,-1.709201E-2,1.4090945E-2,-9.775887E-3,6.6866064E-3,-4.3932977E-3,-6.21791E-3,-1.4041919E-2,-8.827573E-3,4.244145E-3],"split_indices":[31,41,47,0,40,39,11,25,14,0,31,11,36,0,0,0,0,0,0,0,0,0,0,0,0],"split_type":[0,0,0,0,0,0,0,0,0,0,0,0,0,0,0,0,0,0,0,0,0,0,0,0,0],"sum_hessian":[1.2218306E4,5.244164E3,6.974141E3,1.0924673E2,5.1349175E3,4.66352E3,2.3106213E3,5.0202944E3,1.1462286E2,9.5495856E2,3.7085613E3,1.5530555E3,7.575659E2,6.768916E2,4.343403E3,1.8156508E0,1.1280721E2,7.241087E1,8.825477E2,1.8870453E3,1.821516E3,3.428363E2,1.2102192E3,4.190063E2,3.3855963E2],"tree_param":{"num_deleted":"0","num_feature":"52","num_nodes":"25","size_leaf_vector":"1"}},{"base_weights":[1.2991471E-3,3.1673032E-1,-5.533662E-1,2.4025734E-1,1.2767215E0,-3.1921762E-1,-9.900893E-1,3.183255E-1,-1.2308247E0,-1.6615385E-2,1.3274771E0,-1.6206926E0,-2.0110777E-1,-1.2825752E0,-2.8043547E-1,3.7534225E-3,-1.12231495E-2,-1.3381425E-2,1.3514001E-2,4.9815387E-3,1.3928116E-2,-1.6084407E-3,-1.6883248E-2,3.4221883E-3,-5.105439E-3,-7.585922E-3,-1.4028005E-2,3.4857204E-3,-1.1938172E-2],"categories":[],"categories_nodes":[],"categories_segments":[],"categories_sizes":[],"default_left":[0,0,0,0,0,0,0,0,0,0,0,0,0,0,0,0,0,0,0,0,0,0,0,0,0,0,0,0,0],"id":38,"left_children":[1,3,5,7,9,11,13,15,17,-1,19,21,23,25,27,-1,-1,-1,-1,-1,-1,-1,-1,-1,-1,-1,-1,-1,-1],"loss_changes":[2.1295479E3,5.693202E2,4.5090222E2,8.258849E2,8.754846E1,4.4144873E2,3.192047E2,5.611525E2,1.0224579E2,0E0,2.9816772E1,2.3322815E1,4.43348E2,6.759961E1,2.5931305E2,0E0,0E0,0E0,0E0,0E0,0E0,0E0,0E0,0E0,0E0,0E0,0E0,0E0,0E0],"parents":[2147483647,0,0,1,1,2,2,3,3,4,4,5,5,6,6,7,7,8,8,10,10,11,11,12,12,13,13,14,14],"right_children":[2,4,6,8,10,12,14,16,18,-1,20,22,24,26,28,-1,-1,-1,-1,-1,-1,-1,-1,-1,-1,-1,-1,-1,-1],"split_conditions":[1.621127E1,3.6226146E0,3.285805E-1,2.6693356E0,3.314122E1,2.983909E0,4.7673827E-1,3.795394E0,1.256872E1,-1.6615385E-2,1.664637E0,1.63469E1,5.60484E0,3.3589974E-1,5E0,3.7534225E-3,-1.12231495E-2,-1.3381425E-2,1.3514001E-2,4.9815387E-3,1.3928116E-2,-1.6084407E-3,-1.6883248E-2,3.4221883E-3,-5.105439E-3,-7.585922E-3,-1.4028005E-2,3.4857204E-3,-1.1938172E-2],"split_indices":[28,46,11,47,1,6,11,16,28,0,3,28,32,46,49,0,0,0,0,0,0,0,0,0,0,0,0,0,0],"split_type":[0,0,0,0,0,0,0,0,0,0,0,0,0,0,0,0,0,0,0,0,0,0,0,0,0,0,0,0,0],"sum_hessian":[1.2169714E4,7.75817E3,4.4115444E3,7.18691E3,5.7125964E2,2.872948E3,1.5385964E3,6.825476E3,3.614343E2,9.161493E0,5.6209814E2,2.379716E2,2.6349763E3,1.0889678E3,4.496286E2,6.566337E3,2.5913895E2,3.4747495E2,1.39593525E1,4.1678467E1,5.204197E2,1.0686248E1,2.2728537E2,9.560973E2,1.678879E3,2.0459282E2,8.84375E2,2.6663007E2,1.8299852E2],"tree_param":{"num_deleted":"0","num_feature":"52","num_nodes":"29","size_leaf_vector":"1"}},{"base_weights":[3.5446146E-4,4.637793E-1,-3.4675014E-1,-4.8637372E-1,7.089762E-1,-6.0611717E-2,-9.374236E-1,7.7841234E-1,-1.3623805E0,-1.9841917E-2,7.5975925E-1,-8.010335E-1,1.2938517E-1,-1.2912488E0,-2.620278E-1,1.3709601E-2,-1.6084509E-2,-1.6411988E-2,1.2262164E-2,-1.6708434E-2,8.107259E-3,1.4896999E-2,-9.616824E-3,6.546127E-3,-4.2440104E-3,-7.330421E-3,-1.4237001E-2,-1.1160847E-2,3.163103E-3],"categories":[],"categories_nodes":[],"categories_segments":[],"categories_sizes":[],"default_left":[0,0,0,0,0,0,0,0,0,0,0,0,0,0,0,0,0,0,0,0,0,0,0,0,0,0,0,0,0],"id":39,"left_children":[1,3,5,7,9,11,13,15,17,-1,19,21,23,25,27,-1,-1,-1,-1,-1,-1,-1,-1,-1,-1,-1,-1,-1,-1],"loss_changes":[1.9446047E3,1.206468E3,1.1681665E3,1.1783146E3,5.643755E2,6.5529565E2,5.386826E2,6.180403E2,4.5535364E2,0E0,5.018379E2,3.5148016E2,1.0785645E3,1.0837329E2,3.839803E2,0E0,0E0,0E0,0E0,0E0,0E0,0E0,0E0,0E0,0E0,0E0,0E0,0E0,0E0],"parents":[2147483647,0,0,1,1,2,2,3,3,4,4,5,5,6,6,7,7,8,8,10,10,11,11,12,12,13,13,14,14],"right_children":[2,4,6,8,10,12,14,16,18,-1,20,22,24,26,28,-1,-1,-1,-1,-1,-1,-1,-1,-1,-1,-1,-1,-1,-1],"split_conditions":[1.87364E-6,6E0,3.2856458E-1,5E0,-6.0575473E-1,6.2136674E0,6.0693705E-1,4.2222915E0,3.547122E0,-1.9841917E-2,-1.8024719E-1,3.110577E1,5.468128E0,3.3589974E-1,1E0,1.3709601E-2,-1.6084509E-2,-1.6411988E-2,1.2262164E-2,-1.6708434E-2,8.107259E-3,1.4896999E-2,-9.616824E-3,6.546127E-3,-4.2440104E-3,-7.330421E-3,-1.4237001E-2,-1.1160847E-2,3.163103E-3],"split_indices":[33,49,46,49,35,39,11,37,48,0,37,1,32,11,51,0,0,0,0,0,0,0,0,0,0,0,0,0,0],"split_type":[0,0,0,0,0,0,0,0,0,0,0,0,0,0,0,0,0,0,0,0,0,0,0,0,0,0,0,0,0],"sum_hessian":[1.2087035E4,5.1760596E3,6.9109756E3,1.0615408E3,4.114519E3,4.6563936E3,2.254582E3,4.3442526E2,6.271155E2,7.544386E1,4.039075E3,9.502059E2,3.7061877E3,1.4789044E3,7.756776E2,3.483674E2,8.605788E1,5.6646716E2,6.0648304E1,8.2302055E1,3.956773E3,6.1728653E1,8.884772E2,1.902047E3,1.8041407E3,2.8487085E2,1.1940336E3,3.1280908E2,4.6286853E2],"tree_param":{"num_deleted":"0","num_feature":"52","num_nodes":"29","size_leaf_vector":"1"}},{"base_weights":[5.682514E-5,4.7047758E-1,-3.535544E-1,-5.4797685E-1,7.2502273E-1,-5.9789527E-2,-9.606028E-1,6.8908316E-1,-1.3702784E0,-1.8922117E0,7.773691E-1,-1.5428855E-1,1.2530787E0,-1.2597144E0,-3.8469756E-1,1.309779E-2,-1.5920639E-2,-1.595141E-2,1.050941E-2,1.0888419E-2,-1.9638274E-2,-1.799041E-2,8.275125E-3,-7.745544E-4,-1.5281275E-2,1.4509137E-2,-1.707304E-2,-1.3069525E-2,2.1847433E-3,-1.0339573E-2,3.7732094E-3],"categories":[],"categories_nodes":[],"categories_segments":[],"categories_sizes":[],"default_left":[0,0,0,0,0,0,0,0,0,0,0,0,0,0,0,0,0,0,0,0,0,0,0,0,0,0,0,0,0,0,0],"id":40,"left_children":[1,3,5,7,9,11,13,15,17,19,21,23,25,27,29,-1,-1,-1,-1,-1,-1,-1,-1,-1,-1,-1,-1,-1,-1,-1,-1],"loss_changes":[2.0125625E3,1.3463359E3,1.2316357E3,1.0575562E3,5.70594E2,5.777782E2,3.8750122E2,5.9027905E2,3.4156445E2,1.9590363E1,5.277258E2,4.5839743E2,1.8562012E2,1.03766846E2,3.8202115E2,0E0,0E0,0E0,0E0,0E0,0E0,0E0,0E0,0E0,0E0,0E0,0E0,0E0,0E0,0E0,0E0],"parents":[2147483647,0,0,1,1,2,2,3,3,4,4,5,5,6,6,7,7,8,8,9,9,10,10,11,11,12,12,13,13,14,14],"right_children":[2,4,6,8,10,12,14,16,18,20,22,24,26,28,30,-1,-1,-1,-1,-1,-1,-1,-1,-1,-1,-1,-1,-1,-1,-1,-1],"split_conditions":[1.87364E-6,6E0,3.2855672E-1,5E0,-6.0575473E-1,5.39975E1,6.0693705E-1,4.4401016E0,3.547122E0,1.5945166E-1,-1.8024719E-1,3.904557E2,6.0486236E0,6.0552293E-1,2.5919006E0,1.309779E-2,-1.5920639E-2,-1.595141E-2,1.050941E-2,1.0888419E-2,-1.9638274E-2,-1.799041E-2,8.275125E-3,-7.745544E-4,-1.5281275E-2,1.4509137E-2,-1.707304E-2,-1.3069525E-2,2.1847433E-3,-1.0339573E-2,3.7732094E-3],"split_indices":[35,49,45,49,36,21,43,10,48,44,10,5,35,48,36,0,0,0,0,0,0,0,0,0,0,0,0,0,0,0,0],"split_type":[0,0,0,0,0,0,0,0,0,0,0,0,0,0,0,0,0,0,0,0,0,0,0,0,0,0,0,0,0,0,0],"sum_hessian":[1.2096648E4,5.1908105E3,6.9058384E3,1.0377083E3,4.153102E3,4.6545107E3,2.2513276E3,4.1442084E2,6.232874E2,8.074671E1,4.0723555E3,4.3428022E3,3.1170834E2,1.4809633E3,7.703643E2,3.2611215E2,8.830869E1,5.70633E2,5.265445E1,1.5610934E0,7.918562E1,7.707932E1,3.9952761E3,4.1137915E3,2.2901088E2,2.9266046E2,1.9047873E1,1.435214E3,4.5749157E1,4.1576486E2,3.545995E2],"tree_param":{"num_deleted":"0","num_feature":"52","num_nodes":"31","size_leaf_vector":"1"}},{"base_weights":[1.5370273E-3,3.162241E-1,-5.311418E-1,5.0104547E-1,-6.1349366E-2,-4.349597E-1,-1.5898209E-2,-1.7661141E-2,5.4901993E-1,-6.925925E-1,6.402057E-1,-6.078524E-1,3.525443E-1,-2.648757E-3,6.8175266E-3,1.21168E-2,-8.004599E-3,3.4366874E-3,1.4644131E-2,-8.692909E-3,-1.3214003E-3,8.520491E-3,-1.6857386E-2],"categories":[],"categories_nodes":[],"categories_segments":[],"categories_sizes":[],"default_left":[0,0,0,0,0,0,0,0,0,0,0,0,0,0,0,0,0,0,0,0,0,0,0],"id":41,"left_children":[1,3,5,7,9,11,-1,-1,13,15,17,19,21,-1,-1,-1,-1,-1,-1,-1,-1,-1,-1],"loss_changes":[2.0358326E3,5.3280786E2,4.585747E2,5.5848083E2,1.1119586E3,5.633515E2,0E0,0E0,5.425314E2,2.7244635E2,2.9016284E2,4.2172522E2,7.601607E2,0E0,0E0,0E0,0E0,0E0,0E0,0E0,0E0,0E0,0E0],"parents":[2147483647,0,0,1,1,2,2,3,3,4,4,5,5,8,8,9,9,10,10,11,11,12,12],"right_children":[2,4,6,8,10,12,-1,-1,14,16,18,20,22,-1,-1,-1,-1,-1,-1,-1,-1,-1,-1],"split_conditions":[1.598165E1,1.87364E-6,6.009425E1,-1.8754676E-1,6.2712703E0,7.535385E0,-1.5898209E-2,-1.7661141E-2,-7.91274E0,9.332347E-1,5.05435E1,6.5832047E0,3.36752E1,-2.648757E-3,6.8175266E-3,1.21168E-2,-8.004599E-3,3.4366874E-3,1.4644131E-2,-8.692909E-3,-1.3214003E-3,8.520491E-3,-1.6857386E-2],"split_indices":[30,34,4,39,42,36,0,0,27,10,24,42,19,0,0,0,0,0,0,0,0,0,0],"split_type":[0,0,0,0,0,0,0,0,0,0,0,0,0,0,0,0,0,0,0,0,0,0,0],"sum_hessian":[1.2143003E4,7.6337E3,4.509303E3,5.124797E3,2.5089033E3,4.135041E3,3.74262E2,1.0545446E2,5.0193423E3,1.3206372E3,1.1882662E3,3.390829E3,7.4421204E2,7.0365405E2,4.315688E3,7.024861E1,1.2503885E3,8.749059E2,3.1336038E2,2.1877012E3,1.2031279E3,5.9819855E2,1.4601349E2],"tree_param":{"num_deleted":"0","num_feature":"52","num_nodes":"23","size_leaf_vector":"1"}},{"base_weights":[6.2497044E-3,4.5904985E-1,-3.3800587E-1,-1.7540306E-2,5.060255E-1,-6.7882985E-2,-9.026965E-1,-3.2069135E-1,6.375529E-1,-8.2559294E-1,1.2624255E-1,-1.2227308E0,-3.0173072E-1,-1.8001933E-2,2.201025E-3,6.9595203E-3,-1.657677E-2,1.3359841E-2,-9.891963E-3,6.613791E-3,-4.3577333E-3,-6.491436E-3,-1.3565464E-2,-8.970901E-3,4.6575204E-3],"categories":[],"categories_nodes":[],"categories_segments":[],"categories_sizes":[],"default_left":[0,0,0,0,0,0,0,0,0,0,0,0,0,0,0,0,0,0,0,0,0,0,0,0,0],"id":42,"left_children":[1,3,5,-1,7,9,11,13,15,17,19,21,23,-1,-1,-1,-1,-1,-1,-1,-1,-1,-1,-1,-1],"loss_changes":[1.8787996E3,5.4208374E2,1.0443784E3,0E0,5.545773E2,6.815316E2,4.2573303E2,5.608359E2,5.9077734E2,3.355E2,1.1096938E3,1.1005371E2,3.527891E2,0E0,0E0,0E0,0E0,0E0,0E0,0E0,0E0,0E0,0E0,0E0,0E0],"parents":[2147483647,0,0,1,1,2,2,4,4,5,5,6,6,7,7,8,8,9,9,10,10,11,11,12,12],"right_children":[2,4,6,-1,8,10,12,14,16,18,20,22,24,-1,-1,-1,-1,-1,-1,-1,-1,-1,-1,-1,-1],"split_conditions":[1.87364E-6,-1.8761292E-1,3.2968816E-1,-1.7540306E-2,-7.92003E0,6.2136674E0,6.0693705E-1,4.35442E0,5.625914E0,1.24088E0,5.4675517E0,3.3589974E-1,2.5919006E0,-1.8001933E-2,2.201025E-3,6.9595203E-3,-1.657677E-2,1.3359841E-2,-9.891963E-3,6.613791E-3,-4.3577333E-3,-6.491436E-3,-1.3565464E-2,-8.970901E-3,4.6575204E-3],"split_indices":[32,40,47,0,26,39,43,0,41,0,34,11,34,0,0,0,0,0,0,0,0,0,0,0,0],"split_type":[0,0,0,0,0,0,0,0,0,0,0,0,0,0,0,0,0,0,0,0,0,0,0,0,0],"sum_hessian":[1.2050941E4,5.2047666E3,6.8461753E3,1.0742663E2,5.09734E3,4.6316973E3,2.2144778E3,6.994572E2,4.397883E3,9.4396484E2,3.6877324E3,1.4443033E3,7.7017444E2,1.866077E2,5.128495E2,4.2894404E3,1.08442406E2,6.591464E1,8.7805023E2,1.8889489E3,1.7987837E3,2.74318E2,1.1699854E3,4.3362762E2,3.365468E2],"tree_param":{"num_deleted":"0","num_feature":"52","num_nodes":"25","size_leaf_vector":"1"}},{"base_weights":[-2.6683675E-3,2.8878483E-1,-5.1492506E-1,2.077799E-1,1.252277E0,-2.8352022E-1,-9.5367676E-1,2.8533366E-1,-1.2256181E0,-1.663727E-2,1.29678E0,-1.4419631E0,-1.4751205E-1,-1.1405128E0,1.4516344E-2,3.3726497E-3,-1.1111055E-2,1.8730085E-2,-1.3419276E-2,1.3286405E-2,-3.2730221E-3,2.2137396E-3,-1.6004218E-2,-7.023369E-3,1.9934545E-3,-1.1671446E-2,1.0394238E-2,5.155896E-3,-1.7358996E-2],"categories":[],"categories_nodes":[],"categories_segments":[],"categories_sizes":[],"default_left":[0,0,0,0,0,0,0,0,0,0,0,0,0,0,0,0,0,0,0,0,0,0,0,0,0,0,0,0,0],"id":43,"left_children":[1,3,5,7,9,11,13,15,17,-1,19,21,23,25,27,-1,-1,-1,-1,-1,-1,-1,-1,-1,-1,-1,-1,-1,-1],"loss_changes":[1.8081013E3,6.021807E2,4.4561853E2,7.920099E2,7.981641E1,4.5303192E2,2.7425818E2,4.9036633E2,1.3431781E2,0E0,3.0963928E1,7.9989624E1,4.9579205E2,7.499158E1,2.1685135E2,0E0,0E0,0E0,0E0,0E0,0E0,0E0,0E0,0E0,0E0,0E0,0E0,0E0,0E0],"parents":[2147483647,0,0,1,1,2,2,3,3,4,4,5,5,6,6,7,7,8,8,10,10,11,11,12,12,13,13,14,14],"right_children":[2,4,6,8,10,12,14,16,18,-1,20,22,24,26,28,-1,-1,-1,-1,-1,-1,-1,-1,-1,-1,-1,-1,-1,-1],"split_conditions":[1.621127E1,3.6226146E0,3.285805E-1,2.6680286E0,3.314122E1,2.0097877E-1,8.9930886E-1,3.795394E0,-1.177705E2,-1.663727E-2,1.127122E1,1.311903E1,3E0,6.09031E1,5E0,3.3726497E-3,-1.1111055E-2,1.8730085E-2,-1.3419276E-2,1.3286405E-2,-3.2730221E-3,2.2137396E-3,-1.6004218E-2,-7.023369E-3,1.9934545E-3,-1.1671446E-2,1.0394238E-2,5.155896E-3,-1.7358996E-2],"split_indices":[28,47,11,11,1,43,11,16,22,0,8,27,49,23,49,0,0,0,0,0,0,0,0,0,0,0,0,0,0],"split_type":[0,0,0,0,0,0,0,0,0,0,0,0,0,0,0,0,0,0,0,0,0,0,0,0,0,0,0,0,0],"sum_hessian":[1.2108621E4,7.717891E3,4.3907295E3,7.1204595E3,5.9743195E2,2.8756897E3,1.5150398E3,6.755742E3,3.6471744E2,8.433777E0,5.8899817E2,3.0114032E2,2.5745496E3,1.2698197E3,2.452201E2,6.514246E3,2.4149574E2,1.26482725E1,3.5206918E2,5.778441E2,1.1154016E1,2.61585E1,2.749818E2,9.899787E2,1.5845708E3,1.2549528E3,1.4866927E1,1.9119434E2,5.4025757E1],"tree_param":{"num_deleted":"0","num_feature":"52","num_nodes":"29","size_leaf_vector":"1"}},{"base_weights":[1.6912112E-3,3.0565524E-1,-5.332617E-1,2.2685571E-1,1.2512335E0,-4.423847E-1,-1.5551217E0,3.0565083E-1,-1.2106076E0,-1.6624736E-2,1.2975732E0,-6.377423E-1,4.1730487E-1,-9.732347E-1,-1.5727386E-2,3.5696328E-3,-1.1198671E-2,1.7943779E-2,-1.2951091E-2,-1.6827922E-2,1.3128438E-2,-1.3007601E-2,-4.7613783E-3,9.068633E-3,-1.6222883E-2,1.03325825E-2,-1.4250462E-2],"categories":[],"categories_nodes":[],"categories_segments":[],"categories_sizes":[],"default_left":[0,0,0,0,0,0,0,0,0,0,0,0,0,0,0,0,0,0,0,0,0,0,0,0,0,0,0],"id":44,"left_children":[1,3,5,7,9,11,13,15,17,-1,19,21,23,25,-1,-1,-1,-1,-1,-1,-1,-1,-1,-1,-1,-1,-1],"loss_changes":[1.9571094E3,5.715828E2,4.0428503E2,8.029385E2,8.184192E1,6.730927E2,2.116333E0,4.9182373E2,9.587677E1,0E0,2.8673706E1,3.4919067E2,7.427667E2,1.33281355E1,0E0,0E0,0E0,0E0,0E0,0E0,0E0,0E0,0E0,0E0,0E0,0E0,0E0],"parents":[2147483647,0,0,1,1,2,2,3,3,4,4,5,5,6,6,7,7,8,8,10,10,11,11,12,12,13,13],"right_children":[2,4,6,8,10,12,14,16,18,-1,20,22,24,26,-1,-1,-1,-1,-1,-1,-1,-1,-1,-1,-1,-1,-1],"split_conditions":[1.61394E1,3.6223705E0,6.009425E1,2.6680286E0,3.314122E1,7.535385E0,2.0639469E-1,3.795108E0,-1.173694E2,-1.6624736E-2,-7.723E-1,2.3639363E-1,3.36752E1,6.033366E1,-1.5727386E-2,3.5696328E-3,-1.1198671E-2,1.7943779E-2,-1.2951091E-2,-1.6827922E-2,1.3128438E-2,-1.3007601E-2,-4.7613783E-3,9.068633E-3,-1.6222883E-2,1.03325825E-2,-1.4250462E-2],"split_indices":[27,45,4,11,1,12,45,15,21,0,27,47,19,4,0,0,0,0,0,0,0,0,0,0,0,0,0],"split_type":[0,0,0,0,0,0,0,0,0,0,0,0,0,0,0,0,0,0,0,0,0,0,0,0,0,0,0],"sum_hessian":[1.2033864E4,7.6739185E3,4.3599463E3,7.0847524E3,5.8916614E2,4.005186E3,3.5476E2,6.7173267E3,3.6742557E2,8.677466E0,5.8048865E2,3.2637769E3,7.414092E2,1.2077721E1,3.4268228E2,6.4846567E3,2.3266975E2,9.496124E0,3.5792944E2,2.4024422E0,5.7808624E2,6.382339E2,2.625543E3,5.983453E2,1.4306393E2,1.9832389E0,1.0094481E1],"tree_param":{"num_deleted":"0","num_feature":"52","num_nodes":"27","size_leaf_vector":"1"}},{"base_weights":[-1.0435223E-2,4.484362E-1,-3.5510203E-1,-5.0511956E-1,6.971173E-1,-7.06599E-2,-9.4547975E-1,7.381885E-1,-1.3762665E0,-1.9489568E-2,7.4318457E-1,-7.8123534E-1,1.5376385E-1,-1.2684368E0,-3.2456228E-1,1.3033873E-2,-1.55991595E-2,-1.5883148E-2,9.981694E-3,-1.6281161E-2,7.925989E-3,1.3016138E-2,-8.918529E-3,7.025781E-3,-4.1442905E-3,-7.317489E-3,-1.4045169E-2,-9.19868E-3,4.0682466E-3],"categories":[],"categories_nodes":[],"categories_segments":[],"categories_sizes":[],"default_left":[0,0,0,0,0,0,0,0,0,0,0,0,0,0,0,0,0,0,0,0,0,0,0,0,0,0,0,0,0],"id":45,"left_children":[1,3,5,7,9,11,13,15,17,-1,19,21,23,25,27,-1,-1,-1,-1,-1,-1,-1,-1,-1,-1,-1,-1,-1,-1],"loss_changes":[1.8985125E3,1.221324E3,1.1510787E3,1.1552025E3,4.9931335E2,7.380211E2,4.4652344E2,5.7313464E2,3.1724805E2,0E0,4.717688E2,2.570918E2,1.097129E3,1.06025635E2,3.329942E2,0E0,0E0,0E0,0E0,0E0,0E0,0E0,0E0,0E0,0E0,0E0,0E0,0E0,0E0],"parents":[2147483647,0,0,1,1,2,2,3,3,4,4,5,5,6,6,7,7,8,8,10,10,11,11,12,12,13,13,14,14],"right_children":[2,4,6,8,10,12,14,16,18,-1,20,22,24,26,28,-1,-1,-1,-1,-1,-1,-1,-1,-1,-1,-1,-1,-1,-1],"split_conditions":[1.87364E-6,6E0,3.284903E-1,5E0,-6.0575473E-1,6.2712398E0,6.0552293E-1,4.219834E0,3.547122E0,-1.9489568E-2,-1.8024719E-1,1.24088E0,5.4470987E0,3.358799E-1,2.5919006E0,1.3033873E-2,-1.55991595E-2,-1.5883148E-2,9.981694E-3,-1.6281161E-2,7.925989E-3,1.3016138E-2,-8.918529E-3,7.025781E-3,-4.1442905E-3,-7.317489E-3,-1.4045169E-2,-9.19868E-3,4.0682466E-3],"split_indices":[12,49,48,49,32,41,45,10,47,0,41,0,36,43,36,0,0,0,0,0,0,0,0,0,0,0,0,0,0],"split_type":[0,0,0,0,0,0,0,0,0,0,0,0,0,0,0,0,0,0,0,0,0,0,0,0,0,0,0,0,0],"sum_hessian":[1.2001909E4,5.147927E3,6.8539824E3,1.0646285E3,4.0832983E3,4.626209E3,2.2277734E3,4.3868555E2,6.2594305E2,6.91655E1,4.0141328E3,1.1098131E3,3.516396E3,1.4648302E3,7.6294324E2,3.524391E2,8.624648E1,5.749302E2,5.101288E1,8.1288795E1,3.932844E3,5.542541E1,1.0543877E3,1.7885802E3,1.7278158E3,2.9757974E2,1.1672505E3,4.2045776E2,3.4248547E2],"tree_param":{"num_deleted":"0","num_feature":"52","num_nodes":"29","size_leaf_vector":"1"}},{"base_weights":[5.6547397E-3,2.9849258E-1,-5.1005894E-1,2.232407E-1,1.2332845E0,-4.1385722E-1,-1.559367E-2,2.9923436E-1,-1.2043215E0,-1.6578743E-2,1.2831185E0,-5.2545226E-1,1.3107725E0,3.5242608E-3,-1.1688103E-2,1.8241916E-2,-1.3198173E-2,5.463057E-3,1.3443421E-2,-2.948059E-3,-9.462368E-3,1.50682805E-2,-9.19312E-3],"categories":[],"categories_nodes":[],"categories_segments":[],"categories_sizes":[],"default_left":[0,0,0,0,0,0,0,0,0,0,0,0,0,0,0,0,0,0,0,0,0,0,0],"id":46,"left_children":[1,3,5,7,9,11,-1,13,15,-1,17,19,21,-1,-1,-1,-1,-1,-1,-1,-1,-1,-1],"loss_changes":[1.8221631E3,5.41082E2,4.4047522E2,7.731715E2,8.470441E1,7.7135095E2,0E0,5.286272E2,1.2841443E2,0E0,2.470752E1,3.6479602E2,1.07910614E2,0E0,0E0,0E0,0E0,0E0,0E0,0E0,0E0,0E0,0E0],"parents":[2147483647,0,0,1,1,2,2,3,3,4,4,5,5,7,7,8,8,10,10,11,11,12,12],"right_children":[2,4,6,8,10,12,-1,14,16,-1,18,20,22,-1,-1,-1,-1,-1,-1,-1,-1,-1,-1],"split_conditions":[1.621335E1,3.6223705E0,6.009425E1,2.6712854E0,3.314122E1,1.025835E1,-1.559367E-2,3.795108E0,-1.176962E2,-1.6578743E-2,1.664637E0,3.284903E-1,3.598482E0,3.5242608E-3,-1.1688103E-2,1.8241916E-2,-1.3198173E-2,5.463057E-3,1.3443421E-2,-2.948059E-3,-9.462368E-3,1.50682805E-2,-9.19312E-3],"split_indices":[30,45,4,43,1,6,0,18,24,0,3,48,13,0,0,0,0,0,0,0,0,0,0],"split_type":[0,0,0,0,0,0,0,0,0,0,0,0,0,0,0,0,0,0,0,0,0,0,0],"sum_hessian":[1.2063662E4,7.694763E3,4.3688984E3,7.122622E3,5.721409E2,4.0032688E3,3.656296E2,6.7633765E3,3.5924557E2,9.147962E0,5.62993E2,3.7606267E3,2.4264232E2,6.527621E3,2.3575551E2,1.2653482E1,3.465921E2,4.3952847E1,5.1904016E2,2.4302332E3,1.3303933E3,2.233326E2,1.9309723E1],"tree_param":{"num_deleted":"0","num_feature":"52","num_nodes":"23","size_leaf_vector":"1"}},{"base_weights":[1.04147615E-2,2.9889074E-1,-4.940822E-1,4.8320687E-1,-5.417957E-2,-3.9755622E-1,-1.5513489E-2,-3.8844565E-1,6.919595E-1,-6.6742945E-1,6.1398834E-1,-5.158128E-1,1.3677098E0,1.3098728E-2,-1.351738E-2,-1.8572105E-2,7.4290405E-3,1.2070019E-2,-7.7026743E-3,7.0523717E-3,-1.44876605E-2,-2.919452E-3,-9.175888E-3,1.4718308E-2,-1.1769504E-2],"categories":[],"categories_nodes":[],"categories_segments":[],"categories_sizes":[],"default_left":[0,0,0,0,0,0,0,0,0,0,0,0,0,0,0,0,0,0,0,0,0,0,0,0,0],"id":47,"left_children":[1,3,5,7,9,11,-1,13,15,17,19,21,23,-1,-1,-1,-1,-1,-1,-1,-1,-1,-1,-1,-1],"loss_changes":[1.7590038E3,5.0043164E2,4.4810754E2,9.195659E2,1.0814584E3,8.420769E2,0E0,1.599812E3,5.30766E2,2.6620178E2,2.3877307E2,3.3955316E2,6.885129E1,0E0,0E0,0E0,0E0,0E0,0E0,0E0,0E0,0E0,0E0,0E0,0E0],"parents":[2147483647,0,0,1,1,2,2,3,3,4,4,5,5,7,7,8,8,9,9,10,10,11,11,12,12],"right_children":[2,4,6,8,10,12,-1,14,16,18,20,22,24,-1,-1,-1,-1,-1,-1,-1,-1,-1,-1,-1,-1],"split_conditions":[1.621335E1,1.87364E-6,6.009425E1,6E0,6.2787414E0,1.025835E1,-1.5513489E-2,5E0,-6.0575473E-1,9.3513733E-1,3.3352715E-1,3.2855672E-1,3.31964E1,1.3098728E-2,-1.351738E-2,-1.8572105E-2,7.4290405E-3,1.2070019E-2,-7.7026743E-3,7.0523717E-3,-1.44876605E-2,-2.919452E-3,-9.175888E-3,1.4718308E-2,-1.1769504E-2],"split_indices":[29,35,4,49,40,6,0,49,36,39,44,45,20,0,0,0,0,0,0,0,0,0,0,0,0],"split_type":[0,0,0,0,0,0,0,0,0,0,0,0,0,0,0,0,0,0,0,0,0,0,0,0,0],"sum_hessian":[1.2084431E4,7.6884893E3,4.395941E3,5.0512017E3,2.6372878E3,4.0294385E3,3.6650235E2,9.7581165E2,4.07539E3,1.375158E3,1.2621299E3,3.7771143E3,2.5232411E2,3.5303632E2,6.227753E2,7.91553E1,3.9962346E3,7.0963684E1,1.3041942E3,1.2092932E3,5.283669E1,2.4266975E3,1.3504169E3,2.4281052E2,9.513602E0],"tree_param":{"num_deleted":"0","num_feature":"52","num_nodes":"25","size_leaf_vector":"1"}},